{"learner":{"attributes":{},"feature_names":["Gender","Age","Occupation","Sleep Duration","Quality of Sleep","Physical Activity Level","Stress Level","BMI Category","Blood Pressure","Heart Rate","Daily Steps"],"feature_types":["int","int","int","float","int","int","int","int","int","int","int"],"gradient_booster":{"model":{"gbtree_model_param":{"num_parallel_tree":"1","num_trees":"300"},"iteration_indptr":[0,3,6,9,12,15,18,21,24,27,30,33,36,39,42,45,48,51,54,57,60,63,66,69,72,75,78,81,84,87,90,93,96,99,102,105,108,111,114,117,120,123,126,129,132,135,138,141,144,147,150,153,156,159,162,165,168,171,174,177,180,183,186,189,192,195,198,201,204,207,210,213,216,219,222,225,228,231,234,237,240,243,246,249,252,255,258,261,264,267,270,273,276,279,282,285,288,291,294,297,300],"tree_info":[0,1,2,0,1,2,0,1,2,0,1,2,0,1,2,0,1,2,0,1,2,0,1,2,0,1,2,0,1,2,0,1,2,0,1,2,0,1,2,0,1,2,0,1,2,0,1,2,0,1,2,0,1,2,0,1,2,0,1,2,0,1,2,0,1,2,0,1,2,0,1,2,0,1,2,0,1,2,0,1,2,0,1,2,0,1,2,0,1,2,0,1,2,0,1,2,0,1,2,0,1,2,0,1,2,0,1,2,0,1,2,0,1,2,0,1,2,0,1,2,0,1,2,0,1,2,0,1,2,0,1,2,0,1,2,0,1,2,0,1,2,0,1,2,0,1,2,0,1,2,0,1,2,0,1,2,0,1,2,0,1,2,0,1,2,0,1,2,0,1,2,0,1,2,0,1,2,0,1,2,0,1,2,0,1,2,0,1,2,0,1,2,0,1,2,0,1,2,0,1,2,0,1,2,0,1,2,0,1,2,0,1,2,0,1,2,0,1,2,0,1,2,0,1,2,0,1,2,0,1,2,0,1,2,0,1,2,0,1,2,0,1,2,0,1,2,0,1,2,0,1,2,0,1,2,0,1,2,0,1,2,0,1,2,0,1,2,0,1,2,0,1,2,0,1,2,0,1,2,0,1,2,0,1,2,0,1,2,0,1,2,0,1,2,0,1,2,0,1,2],"trees":[{"base_weights":[-2.5145233E-1,-5.6190485E-1,8.4758365E-1,-6.1142224E-1,2.459016E-1,-2.8767127E-1,3.6439025E-1,-3.065694E-1,-1.976471E-1,7.317073E-1,-1.5517244E-1,-1.8E-1,1.6216213E-1,-6.153847E-1,3.1034482E-1,7.2E-2,2.8800002E-1,-1.2857145E-1,1.7999999E-1,-8.181819E-2,-2.0322584E-1],"categories":[],"categories_nodes":[],"categories_segments":[],"categories_sizes":[],"default_left":[0,0,0,0,0,0,0,0,0,0,0,0,0,0,0,0,0,0,0,0,0],"id":0,"left_children":[1,3,5,7,9,11,-1,13,-1,15,-1,-1,17,19,-1,-1,-1,-1,-1,-1,-1],"loss_changes":[4.6158943E1,4.350403E0,1.2803991E1,1.2318268E0,2.8912575E0,1.2368752E0,0E0,6.940696E0,0E0,2.8097534E-1,0E0,0E0,1.3204634E0,9.1585636E-2,0E0,0E0,0E0,0E0,0E0,0E0,0E0],"parents":[2147483647,0,0,1,1,2,2,3,3,4,4,5,5,7,7,9,9,12,12,13,13],"right_children":[2,4,6,8,10,12,-1,14,-1,16,-1,-1,18,20,-1,-1,-1,-1,-1,-1,-1],"split_conditions":[7E0,7.8E1,4.3E1,1E0,8.4E1,1E0,3.6439025E-1,4.1E1,-1.976471E-1,1E0,-1.5517244E-1,-1.8E-1,7E0,3.7E1,3.1034482E-1,7.2E-2,2.8800002E-1,-1.2857145E-1,1.7999999E-1,-8.181819E-2,-2.0322584E-1],"split_indices":[2,9,1,2,9,0,0,1,0,0,0,0,6,1,0,0,0,0,0,0,0],"split_type":[0,0,0,0,0,0,0,0,0,0,0,0,0,0,0,0,0,0,0,0,0],"sum_hessian":[1.3288889E2,1.0399999E2,2.8888887E1,9.822221E1,5.7777777E0,7.1111107E0,2.1777777E1,1.4222221E1,8.399999E1,3.5555553E0,2.222222E0,3.9999998E0,3.111111E0,1.1999999E1,2.222222E0,1.7777777E0,1.7777777E0,1.3333333E0,1.7777777E0,2.6666665E0,9.333333E0],"tree_param":{"num_deleted":"0","num_feature":"11","num_nodes":"21","size_leaf_vector":"1"}},{"base_weights":[-2.8879672E-1,-6.581097E-1,6.05042E-1,-6.881721E-1,1.2413793E-1,1.1620554E0,-2.0707966E-1,-3.600001E-2,-2.0937884E-1,-3.600001E-2,3.7594938E-1],"categories":[],"categories_nodes":[],"categories_segments":[],"categories_sizes":[],"default_left":[0,0,0,0,0,0,0,0,0,0,0],"id":1,"left_children":[1,3,5,7,-1,9,-1,-1,-1,-1,-1],"loss_changes":[4.4595745E1,3.3531952E0,2.9421764E1,4.3182755E-1,0E0,3.4339561E0,0E0,0E0,0E0,0E0,0E0],"parents":[2147483647,0,0,1,1,2,2,3,3,5,5],"right_children":[2,4,6,8,-1,10,-1,-1,-1,-1,-1],"split_conditions":[1E0,7.8E1,9E0,5E3,1.2413793E-1,3E0,-2.0707966E-1,-3.600001E-2,-2.0937884E-1,-3.600001E-2,3.7594938E-1],"split_indices":[8,9,2,10,0,2,0,0,0,0,0],"split_type":[0,0,0,0,0,0,0,0,0,0,0],"sum_hessian":[1.3288889E2,9.422221E1,3.8666664E1,9.199999E1,2.222222E0,2.7111109E1,1.1555555E1,1.7777777E0,9.022221E1,1.7777777E0,2.5333332E1],"tree_param":{"num_deleted":"0","num_feature":"11","num_nodes":"11","size_leaf_vector":"1"}},{"base_weights":[5.4024893E-1,1.2987013E0,-4.7792712E-1,-1.4400001E-1,4.041359E-1,8.219174E-2,-5.579869E-1,7.317073E-1,-1.7560977E-1,-2.8301892E-1,-5.811139E-1,-7.663455E-9,3.1034482E-1,1.2857142E-1,-1.7560977E-1,-1.8246579E-1,-3.1578952E-1,-7.663455E-9,-1.2000001E-1],"categories":[],"categories_nodes":[],"categories_segments":[],"categories_sizes":[],"default_left":[0,0,0,0,0,0,0,0,0,0,0,0,0,0,0,0,0,0,0],"id":2,"left_children":[1,3,5,-1,-1,7,9,11,-1,13,15,-1,-1,-1,-1,-1,17,-1,-1],"loss_changes":[1.04014786E2,7.2779846E0,2.6417742E0,0E0,0E0,3.9452055E0,1.5843868E-1,1.0092514E0,0E0,1.5178488E0,1.379509E-1,0E0,0E0,0E0,0E0,0E0,1.6842097E-1,0E0,0E0],"parents":[2147483647,0,0,1,1,2,2,5,5,6,6,7,7,9,9,10,10,16,16],"right_children":[2,4,6,-1,-1,8,10,12,-1,14,16,-1,-1,-1,-1,-1,18,-1,-1],"split_conditions":[2E0,6E0,4.2E1,-1.4400001E-1,4.041359E-1,7E0,5E0,4E0,-1.7560977E-1,4.8E1,5.9E1,-7.663455E-9,3.1034482E-1,1.2857142E-1,-1.7560977E-1,-1.8246579E-1,8.1E0,-7.663455E-9,-1.2000001E-1],"split_indices":[7,4,1,0,0,6,2,2,0,1,1,0,0,0,0,0,3,0,0],"split_type":[0,0,0,0,0,0,0,0,0,0,0,0,0,0,0,0,0,0,0],"sum_hessian":[1.3288889E2,7.599999E1,5.6888885E1,1.7777777E0,7.422222E1,7.1111107E0,4.9777775E1,3.5555553E0,3.5555553E0,4.8888884E0,4.4888885E1,1.3333333E0,2.222222E0,1.3333333E0,3.5555553E0,3.9555553E1,5.333333E0,1.3333333E0,3.9999998E0],"tree_param":{"num_deleted":"0","num_feature":"11","num_nodes":"19","size_leaf_vector":"1"}},{"base_weights":[-2.0405091E-1,-4.786362E-1,5.9684956E-1,-5.287113E-1,2.44692E-1,-2.5338864E-1,2.4968933E-1,-2.4650347E-1,-1.7247626E-1,6.420166E-1,-1.3846974E-1,-1.6175587E-1,1.22976E-1,-5.3637576E-1,2.3615003E-1,7.219916E-2,2.4085383E-1,-1.14957675E-1,1.3911106E-1,-6.1921407E-2,-1.8071352E-1],"categories":[],"categories_nodes":[],"categories_segments":[],"categories_sizes":[],"default_left":[0,0,0,0,0,0,0,0,0,0,0,0,0,0,0,0,0,0,0,0,0],"id":3,"left_children":[1,3,5,7,9,11,-1,13,-1,15,-1,-1,17,19,-1,-1,-1,-1,-1,-1,-1],"loss_changes":[2.7572964E1,3.4963188E0,6.641794E0,9.961338E-1,2.177064E0,8.981329E-1,0E0,4.6253266E0,0E0,1.10646605E-1,0E0,0E0,8.9377666E-1,1.2721515E-1,0E0,0E0,0E0,0E0,0E0,0E0,0E0],"parents":[2147483647,0,0,1,1,2,2,3,3,4,4,5,5,7,7,9,9,12,12,13,13],"right_children":[2,4,6,8,10,12,-1,14,-1,16,-1,-1,18,20,-1,-1,-1,-1,-1,-1,-1],"split_conditions":[7E0,7.8E1,4.3E1,1E0,8.4E1,1E0,2.4968933E-1,4.1E1,-1.7247626E-1,1E0,-1.3846974E-1,-1.6175587E-1,7E0,3.7E1,2.3615003E-1,7.219916E-2,2.4085383E-1,-1.14957675E-1,1.3911106E-1,-6.1921407E-2,-1.8071352E-1],"split_indices":[2,9,1,2,9,0,0,1,0,0,0,0,6,1,0,0,0,0,0,0,0],"split_type":[0,0,0,0,0,0,0,0,0,0,0,0,0,0,0,0,0,0,0,0,0],"sum_hessian":[1.23080795E2,9.195634E1,3.1124458E1,8.625413E1,5.702209E0,6.733304E0,2.4391153E1,1.3027555E1,7.322657E1,3.7074447E0,1.9947644E0,3.581231E0,3.152073E0,1.0550088E1,2.4774668E0,1.7747976E0,1.9326471E0,1.2180166E0,1.9340563E0,2.446477E0,8.103611E0],"tree_param":{"num_deleted":"0","num_feature":"11","num_nodes":"21","size_leaf_vector":"1"}},{"base_weights":[-2.3927331E-1,-5.764691E-1,4.4801864E-1,-6.0713035E-1,1.0288655E-1,8.149323E-1,-1.8555064E-1,-2.7587285E-2,-1.8514381E-1,-3.1214388E-2,2.618965E-1],"categories":[],"categories_nodes":[],"categories_segments":[],"categories_sizes":[],"default_left":[0,0,0,0,0,0,0,0,0,0,0],"id":4,"left_children":[1,3,5,7,-1,9,-1,-1,-1,-1,-1],"loss_changes":[2.885989E1,2.5545788E0,1.6619791E1,3.6070633E-1,0E0,1.7486401E0,0E0,0E0,0E0,0E0,0E0],"parents":[2147483647,0,0,1,1,2,2,3,3,5,5],"right_children":[2,4,6,8,-1,10,-1,-1,-1,-1,-1],"split_conditions":[1E0,7.8E1,9E0,5E3,1.0288655E-1,3E0,-1.8555064E-1,-2.7587285E-2,-1.8514381E-1,-3.1214388E-2,2.618965E-1],"split_indices":[8,9,2,10,0,2,0,0,0,0,0],"split_type":[0,0,0,0,0,0,0,0,0,0,0],"sum_hessian":[1.22414795E2,8.223185E1,4.0182945E1,7.990676E1,2.3250892E0,3.00729E1,1.0110043E1,1.7180321E0,7.818873E1,1.7398735E0,2.8333029E1],"tree_param":{"num_deleted":"0","num_feature":"11","num_nodes":"11","size_leaf_vector":"1"}},{"base_weights":[3.989696E-1,8.855924E-1,-4.038476E-1,-1.2533614E-1,2.7443942E-1,7.8227445E-2,-4.7909358E-1,6.025166E-1,-1.5895239E-1,-5.014702E-1,-2.4364088E-1,2.3504907E-1,5.8810446E-2,-2.4518874E-1,-1.5825564E-1,1.116152E-2,-9.864647E-2,1.07868865E-1,-1.592259E-1],"categories":[],"categories_nodes":[],"categories_segments":[],"categories_sizes":[],"default_left":[0,0,0,0,0,0,0,0,0,0,0,0,0,0,0,0,0,0,0],"id":5,"left_children":[1,3,5,-1,-1,7,9,11,-1,13,15,-1,-1,17,-1,-1,-1,-1,-1],"loss_changes":[5.40652E1,3.6523285E0,1.9443741E0,0E0,0E0,2.8560114E0,1.1813259E-1,1.9516897E-1,0E0,1.42416E-1,1.5346226E-1,0E0,0E0,1.1621299E0,0E0,0E0,0E0,0E0,0E0],"parents":[2147483647,0,0,1,1,2,2,5,5,6,6,7,7,9,9,10,10,13,13],"right_children":[2,4,6,-1,-1,8,10,12,-1,14,16,-1,-1,18,-1,-1,-1,-1,-1],"split_conditions":[2E0,6E0,4.2E1,-1.2533614E-1,2.7443942E-1,1E0,5.9E1,1E1,-1.5895239E-1,5E0,8.1E0,2.3504907E-1,5.8810446E-2,4.8E1,-1.5825564E-1,1.116152E-2,-9.864647E-2,1.07868865E-1,-1.592259E-1],"split_indices":[7,4,1,0,0,8,1,2,0,2,3,0,0,1,0,0,0,0,0],"split_type":[0,0,0,0,0,0,0,0,0,0,0,0,0,0,0,0,0,0,0],"sum_hessian":[1.3647581E2,8.49069E1,5.1568913E1,1.569265E0,8.333764E1,6.957161E0,4.461175E1,3.7408526E0,3.2163084E0,3.9708206E1,4.903546E0,1.9466338E0,1.7942188E0,4.6242986E0,3.5083908E1,1.2722105E0,3.6313353E0,1.400105E0,3.2241938E0],"tree_param":{"num_deleted":"0","num_feature":"11","num_nodes":"19","size_leaf_vector":"1"}},{"base_weights":[-1.7150183E-1,-4.1461974E-1,4.5883685E-1,-4.6620244E-1,2.3840074E-1,-2.2810665E-1,1.9199525E-1,-2.0346382E-1,-5.109161E-1,5.7727474E-1,-1.2710127E-1,-1.4740297E-1,9.185722E-2,-4.747538E-1,1.9268107E-1,-5.5051345E-1,-3.9353293E-1,7.210531E-2,2.0904255E-1,-1.07566856E-1,1.15322545E-1,-4.4586793E-2,-1.6456805E-1,-6.548978E-2,-1.7062806E-1,-2.3089905E-1,-1.3268909E-1,-1.17560714E-1,-2.9424997E-2],"categories":[],"categories_nodes":[],"categories_segments":[],"categories_sizes":[],"default_left":[0,0,0,0,0,0,0,0,0,0,0,0,0,0,0,0,0,0,0,0,0,0,0,0,0,0,0,0,0],"id":6,"left_children":[1,3,5,7,9,11,-1,13,15,17,-1,-1,19,21,-1,23,25,-1,-1,-1,-1,-1,-1,-1,-1,27,-1,-1,-1],"loss_changes":[1.7139967E1,2.8174944E0,4.0359483E0,7.7480507E-1,1.7126638E0,6.5665025E-1,0E0,3.1821399E0,7.739258E-2,2.3879647E-2,0E0,0E0,6.806669E-1,1.608522E-1,0E0,1.473875E-1,5.223584E-2,0E0,0E0,0E0,0E0,0E0,0E0,0E0,0E0,1.022844E-1,0E0,0E0,0E0],"parents":[2147483647,0,0,1,1,2,2,3,3,4,4,5,5,7,7,8,8,9,9,12,12,13,13,15,15,16,16,25,25],"right_children":[2,4,6,8,10,12,-1,14,16,18,-1,-1,20,22,-1,24,26,-1,-1,-1,-1,-1,-1,-1,-1,28,-1,-1,-1],"split_conditions":[7E0,7.8E1,4.3E1,1E0,8.4E1,1E0,1.9199525E-1,4.1E1,8E1,1E0,-1.2710127E-1,-1.4740297E-1,7E0,3.7E1,1.9268107E-1,6.1E0,3E0,7.210531E-2,2.0904255E-1,-1.07566856E-1,1.15322545E-1,-4.4586793E-2,-1.6456805E-1,-6.548978E-2,-1.7062806E-1,7.8E0,-1.3268909E-1,-1.17560714E-1,-2.9424997E-2],"split_indices":[2,9,1,2,9,0,0,1,5,0,0,0,6,1,0,3,2,0,0,0,0,0,0,0,0,3,0,0,0],"split_type":[0,0,0,0,0,0,0,0,0,0,0,0,0,0,0,0,0,0,0,0,0,0,0,0,0,0,0,0,0],"sum_hessian":[1.0960424E2,7.934397E1,3.0260271E1,7.380048E1,5.5434875E0,6.260412E0,2.3999859E1,1.1540229E1,6.2260254E1,3.7514353E0,1.7920521E0,3.1408184E0,3.119594E0,9.069586E0,2.4706433E0,4.379637E1,1.8463879E1,1.7708287E0,1.9806067E0,1.1395378E0,1.9800563E0,2.229904E0,6.8396816E0,2.9552093E0,4.0841164E1,5.5820622E0,1.2881818E1,1.641783E0,3.940279E0],"tree_param":{"num_deleted":"0","num_feature":"11","num_nodes":"29","size_leaf_vector":"1"}},{"base_weights":[-2.062355E-1,-5.1620144E-1,3.5882822E-1,-5.4824096E-1,8.67127E-2,6.379696E-1,-1.7022878E-1,-1.572157E-2,-1.6785288E-1,-2.5505958E-2,2.0487225E-1],"categories":[],"categories_nodes":[],"categories_segments":[],"categories_sizes":[],"default_left":[0,0,0,0,0,0,0,0,0,0,0],"id":7,"left_children":[1,3,5,7,-1,9,-1,-1,-1,-1,-1],"loss_changes":[1.932143E1,1.9893017E0,1.0521247E1,3.5393333E-1,0E0,1.0543127E0,0E0,0E0,0E0,0E0,0E0],"parents":[2147483647,0,0,1,1,2,2,3,3,5,5],"right_children":[2,4,6,8,-1,10,-1,-1,-1,-1,-1],"split_conditions":[1E0,7.8E1,9E0,5E3,8.67127E-2,3E0,-1.7022878E-1,-1.572157E-2,-1.6785288E-1,-2.5505958E-2,2.0487225E-1],"split_indices":[8,9,2,10,0,2,0,0,0,0,0],"split_type":[0,0,0,0,0,0,0,0,0,0,0],"sum_hessian":[1.0825576E2,6.9963646E1,3.8292118E1,6.759336E1,2.3702798E0,2.9663748E1,8.628369E0,1.6275904E0,6.5965775E1,1.6836809E0,2.7980068E1],"tree_param":{"num_deleted":"0","num_feature":"11","num_nodes":"11","size_leaf_vector":"1"}},{"base_weights":[3.2168245E-1,6.9257885E-1,-3.4345517E-1,-1.1157608E-1,7.1498406E-1,7.612345E-2,-4.1415617E-1,2.2362931E-1,5.430524E-1,5.20894E-1,-1.4619567E-1,-4.3852583E-1,-1.7906035E-1,6.5074794E-2,1.7174889E-1,4.0544225E-3,2.0904101E-1,-3.34841E-1,-1.6224316E-1,2.1142494E-2,-8.0013864E-2,9.139989E-2,-3.9871076E-1,-1.3861848E-1,-4.7178727E-2],"categories":[],"categories_nodes":[],"categories_segments":[],"categories_sizes":[],"default_left":[0,0,0,0,0,0,0,0,0,0,0,0,0,0,0,0,0,0,0,0,0,0,0,0,0],"id":8,"left_children":[1,3,5,-1,7,9,11,-1,13,15,-1,17,19,-1,-1,-1,-1,21,-1,-1,-1,-1,23,-1,-1],"loss_changes":[3.2065033E1,2.2492714E0,1.4214554E0,0E0,2.3326874E-2,2.158781E0,1.5209627E-1,0E0,2.9342651E-2,4.1287613E-1,0E0,1.984005E-1,1.3845606E-1,0E0,0E0,0E0,0E0,9.5452285E-1,0E0,0E0,0E0,0E0,2.175982E-1,0E0,0E0],"parents":[2147483647,0,0,1,1,2,2,4,4,5,5,6,6,8,8,9,9,11,11,12,12,17,17,22,22],"right_children":[2,4,6,-1,8,10,12,-1,14,16,-1,18,20,-1,-1,-1,-1,22,-1,-1,-1,-1,24,-1,-1],"split_conditions":[2E0,6E0,4.2E1,-1.1157608E-1,8.5E1,7E0,5.9E1,2.2362931E-1,7.7E0,4E0,-1.4619567E-1,4.8E1,8.1E0,6.5074794E-2,1.7174889E-1,4.0544225E-3,2.0904101E-1,5E0,-1.6224316E-1,2.1142494E-2,-8.0013864E-2,9.139989E-2,4.5E1,-1.3861848E-1,-4.7178727E-2],"split_indices":[7,4,1,0,5,6,1,0,3,2,0,1,3,0,0,0,0,2,0,0,0,0,1,0,0],"split_type":[0,0,0,0,0,0,0,0,0,0,0,0,0,0,0,0,0,0,0,0,0,0,0,0,0],"sum_hessian":[1.2801308E2,8.215837E1,4.5854702E1,1.3720244E0,8.078635E1,6.601438E0,3.925326E1,6.5798615E1,1.4987734E1,3.7314322E0,2.8700058E0,3.4782463E1,4.4707994E0,1.9339012E0,1.3053833E1,1.2378633E0,2.4935691E0,1.9395298E1,1.5387164E1,1.213135E0,3.2576647E0,1.4188347E0,1.7976463E1,1.3516354E1,4.46011E0],"tree_param":{"num_deleted":"0","num_feature":"11","num_nodes":"25","size_leaf_vector":"1"}},{"base_weights":[-1.4711185E-1,-3.626811E-1,3.7016657E-1,-4.1630456E-1,2.3550957E-1,-2.0970646E-1,1.5638626E-1,-1.6821536E-1,-4.592945E-1,1.5851332E-1,-1.1707437E-1,-1.3529152E-1,6.6993095E-2,-4.2071444E-1,1.6344851E-1,-5.0213355E-1,-3.3978504E-1,-9.65515E-2,9.215617E-2,-2.8448435E-2,-1.5167955E-1,-4.8345983E-2,-1.5691967E-1,-1.8361168E-1,-3.90127E-1,-1.07164636E-1,-1.5947623E-2,-5.9060425E-2,-1.2893152E-1],"categories":[],"categories_nodes":[],"categories_segments":[],"categories_sizes":[],"default_left":[0,0,0,0,0,0,0,0,0,0,0,0,0,0,0,0,0,0,0,0,0,0,0,0,0,0,0,0,0],"id":9,"left_children":[1,3,5,7,9,11,-1,13,15,-1,-1,-1,17,19,-1,21,23,-1,-1,-1,-1,-1,-1,25,27,-1,-1,-1,-1],"loss_changes":[1.0937381E1,2.3077765E0,2.649976E0,6.0086536E-1,1.361861E0,4.779502E-1,0E0,2.204011E0,1.0386753E-1,0E0,0E0,0E0,4.7194904E-1,1.917336E-1,0E0,1.8245792E-1,6.391084E-2,0E0,0E0,0E0,0E0,0E0,0E0,1.1896993E-1,8.468866E-3,0E0,0E0,0E0,0E0],"parents":[2147483647,0,0,1,1,2,2,3,3,4,4,5,5,7,7,8,8,12,12,13,13,15,15,16,16,23,23,24,24],"right_children":[2,4,6,8,10,12,-1,14,16,-1,-1,-1,18,20,-1,22,24,-1,-1,-1,-1,-1,-1,26,28,-1,-1,-1,-1],"split_conditions":[7E0,7.8E1,4.3E1,1E0,8.4E1,1E0,1.5638626E-1,4.1E1,8E1,1.5851332E-1,-1.1707437E-1,-1.3529152E-1,7E0,3.7E1,1.6344851E-1,6.1E0,3E0,-9.65515E-2,9.215617E-2,-2.8448435E-2,-1.5167955E-1,-4.8345983E-2,-1.5691967E-1,7.8E0,4.2E1,-1.07164636E-1,-1.5947623E-2,-5.9060425E-2,-1.2893152E-1],"split_indices":[2,9,1,2,9,0,0,1,5,0,0,0,6,1,0,3,2,0,0,0,0,0,0,3,1,0,0,0,0],"split_type":[0,0,0,0,0,0,0,0,0,0,0,0,0,0,0,0,0,0,0,0,0,0,0,0,0,0,0,0,0],"sum_hessian":[9.588094E1,6.7888245E1,2.7992702E1,6.2582256E1,5.3059864E0,5.7068853E0,2.2285816E1,9.968463E0,5.2613796E1,3.7203844E0,1.5856018E0,2.7121928E0,2.9946928E0,7.6643724E0,2.304091E0,3.6373734E1,1.6240063E1,1.0137322E0,1.9809606E0,2.0213118E0,5.6430607E0,2.60688E0,3.3766853E1,5.0916805E0,1.1148381E1,1.4387518E0,3.6529288E0,2.9131663E0,8.235215E0],"tree_param":{"num_deleted":"0","num_feature":"11","num_nodes":"29","size_leaf_vector":"1"}},{"base_weights":[-1.8183789E-1,-4.6730727E-1,2.9894084E-1,-5.011986E-1,7.417768E-2,5.252956E-1,-1.5809911E-1,-8.322857E-3,-1.5419814E-1,-2.008285E-2,5.632538E-1,6.3486196E-2,1.744577E-1],"categories":[],"categories_nodes":[],"categories_segments":[],"categories_sizes":[],"default_left":[0,0,0,0,0,0,0,0,0,0,0,0,0],"id":10,"left_children":[1,3,5,7,-1,9,-1,-1,-1,-1,11,-1,-1],"loss_changes":[1.3117918E1,1.5702429E0,6.977088E0,3.3315277E-1,0E0,6.813278E-1,0E0,0E0,0E0,0E0,5.049038E-2,0E0,0E0],"parents":[2147483647,0,0,1,1,2,2,3,3,5,5,10,10],"right_children":[2,4,6,8,-1,10,-1,-1,-1,-1,12,-1,-1],"split_conditions":[1E0,7.8E1,9E0,5E3,7.417768E-2,3E0,-1.5809911E-1,-8.322857E-3,-1.5419814E-1,-2.008285E-2,3E1,6.3486196E-2,1.744577E-1],"split_indices":[8,9,2,10,0,2,0,0,0,0,1,0,0],"split_type":[0,0,0,0,0,0,0,0,0,0,0,0,0],"sum_hessian":[9.356064E1,5.872176E1,3.4838882E1,5.6347824E1,2.373936E0,2.763052E1,7.208361E0,1.5661077E0,5.4781715E1,1.6182553E0,2.6012264E1,1.9063928E0,2.4105871E1],"tree_param":{"num_deleted":"0","num_feature":"11","num_nodes":"13","size_leaf_vector":"1"}},{"base_weights":[2.715165E-1,5.775174E-1,-2.9290202E-1,-1.0056094E-1,5.9675604E-1,7.101266E-2,-3.5786843E-1,1.8756346E-1,4.421325E-1,4.495263E-1,-1.3396461E-1,-3.848445E-1,-1.21629566E-1,4.577931E-2,4.711058E-1,3.976538E-3,1.7948715E-1,-2.8087035E-1,-4.9261746E-1,2.959024E-2,-6.363052E-2,1.8395066E-1,3.2737723E-1,7.7607855E-2,-3.412106E-1,-7.180587E-2,-1.6544022E-1,1.5596382E-1,5.3948592E-2,-1.2264825E-1,-3.1294897E-2],"categories":[],"categories_nodes":[],"categories_segments":[],"categories_sizes":[],"default_left":[0,0,0,0,0,0,0,0,0,0,0,0,0,0,0,0,0,0,0,0,0,0,0,0,0,0,0,0,0,0,0],"id":11,"left_children":[1,3,5,-1,7,9,11,-1,13,15,-1,17,19,-1,21,-1,-1,23,25,-1,-1,-1,27,-1,29,-1,-1,-1,-1,-1,-1],"loss_changes":[2.0172724E1,1.5247116E0,1.0037448E0,0E0,5.0230026E-2,1.5921867E0,1.7801046E-1,0E0,5.3557873E-2,2.9066706E-1,0E0,2.1125746E-1,1.22105934E-1,0E0,6.704688E-2,0E0,0E0,6.8102384E-1,7.657719E-2,0E0,0E0,0E0,1.526174E-1,0E0,2.2655916E-1,0E0,0E0,0E0,0E0,0E0,0E0],"parents":[2147483647,0,0,1,1,2,2,4,4,5,5,6,6,8,8,9,9,11,11,12,12,14,14,17,17,18,18,22,22,24,24],"right_children":[2,4,6,-1,8,10,12,-1,14,16,-1,18,20,-1,22,-1,-1,24,26,-1,-1,-1,28,-1,30,-1,-1,-1,-1,-1,-1],"split_conditions":[2E0,6E0,4.2E1,-1.0056094E-1,8.5E1,7E0,5.9E1,1.8756346E-1,7.7E0,4E0,-1.3396461E-1,4.8E1,8.1E0,4.577931E-2,4.3E1,3.976538E-3,1.7948715E-1,5E0,6.1E0,2.959024E-2,-6.363052E-2,1.8395066E-1,7.8E0,7.7607855E-2,4.5E1,-7.180587E-2,-1.6544022E-1,1.5596382E-1,5.3948592E-2,-1.2264825E-1,-3.1294897E-2],"split_indices":[7,4,1,0,5,6,1,0,3,2,0,1,3,0,1,0,0,2,3,0,0,0,3,0,1,0,0,0,0,0,0],"split_type":[0,0,0,0,0,0,0,0,0,0,0,0,0,0,0,0,0,0,0,0,0,0,0,0,0,0,0,0,0,0,0],"sum_hessian":[1.1482E2,7.443933E1,4.0380672E1,1.197634E0,7.32417E1,6.1027193E0,3.427795E1,5.9287502E1,1.3954194E1,3.6007771E0,2.501942E0,3.0200333E1,4.07762E0,1.8394192E0,1.2114775E1,1.1925534E0,2.4082239E0,1.720648E1,1.2993852E1,1.160951E0,2.916669E0,4.4500923E0,7.664683E0,1.400043E0,1.5806437E1,3.405448E0,9.588404E0,2.2307923E0,5.4338903E0,1.1731987E1,4.0744495E0],"tree_param":{"num_deleted":"0","num_feature":"11","num_nodes":"31","size_leaf_vector":"1"}},{"base_weights":[-1.2850636E-1,1.8406206E-1,-4.081459E-1,-1.8813637E-1,1.3362144E-1,5.6450043E-2,-4.3178472E-1,2.2283545E-1,-3.0069223E-1,-1.4713235E-1,-2.9347616E-1,-1.7303456E-2,1.18345015E-1,-3.37603E-1,1.7985007E-2,-1.122444E-1,-1.9128467E-1,-2.3436654E-1,-1.3695092E-1,4.1860737E-2,-2.5905958E-1,-9.4260365E-2,5.309626E-2,-1.2462036E-1,-3.1806927E-2],"categories":[],"categories_nodes":[],"categories_segments":[],"categories_sizes":[],"default_left":[0,0,0,0,0,0,0,0,0,0,0,0,0,0,0,0,0,0,0,0,0,0,0,0,0],"id":12,"left_children":[1,3,5,7,-1,-1,9,11,13,-1,15,-1,-1,17,-1,-1,19,21,-1,-1,23,-1,-1,-1,-1],"loss_changes":[7.444474E0,4.0233655E0,7.129011E-1,8.723473E-1,0E0,0E0,2.0820045E-1,2.306358E-1,2.0783472E-1,0E0,5.5521607E-2,0E0,0E0,5.1785707E-2,0E0,0E0,2.3451018E-1,3.5046986E-1,0E0,0E0,1.4001554E-1,0E0,0E0,0E0,0E0],"parents":[2147483647,0,0,1,1,2,2,3,3,6,6,7,7,8,8,10,10,13,13,16,16,17,17,20,20],"right_children":[2,4,6,8,-1,-1,10,12,14,-1,16,-1,-1,18,-1,-1,20,22,-1,-1,24,-1,-1,-1,-1],"split_conditions":[5E1,6E3,3.7E3,4.2E3,1.3362144E-1,5.6450043E-2,9E1,4E1,4.5E1,-1.4713235E-1,1E0,-1.7303456E-2,1.18345015E-1,8.4E0,1.7985007E-2,-1.122444E-1,7.7E0,3.8E1,-1.3695092E-1,4.1860737E-2,4.3E1,-9.4260365E-2,5.309626E-2,-1.2462036E-1,-3.1806927E-2],"split_indices":[5,10,10,10,0,0,5,5,5,0,0,0,0,3,0,0,3,1,0,0,1,0,0,0,0],"split_type":[0,0,0,0,0,0,0,0,0,0,0,0,0,0,0,0,0,0,0,0,0,0,0,0,0],"sum_hessian":[8.331123E1,3.950081E1,4.3810425E1,1.641007E1,2.3090738E1,1.4051075E0,4.240532E1,3.3174365E0,1.3092634E1,2.798917E1,1.4416149E1,1.5114083E0,1.8060282E0,1.1935002E1,1.1576318E0,6.569122E0,7.847028E0,7.978603E0,3.9563994E0,1.15423E0,6.6927977E0,6.8796034E0,1.0989999E0,2.46261E0,4.230188E0],"tree_param":{"num_deleted":"0","num_feature":"11","num_nodes":"25","size_leaf_vector":"1"}},{"base_weights":[-1.6108944E-1,-4.2390823E-1,2.5464433E-1,-4.6032777E-1,6.6779375E-2,4.4592616E-1,-1.4836586E-1,-1.580876E-3,-1.4251806E-1,-1.6533868E-2,4.8010334E-1,5.6441244E-2,4.9567363E-1,1.6190755E-1,2.9093286E-1,1.0406485E-2,1.07313074E-1],"categories":[],"categories_nodes":[],"categories_segments":[],"categories_sizes":[],"default_left":[0,0,0,0,0,0,0,0,0,0,0,0,0,0,0,0,0],"id":13,"left_children":[1,3,5,7,-1,9,-1,-1,-1,-1,11,-1,13,-1,15,-1,-1],"loss_changes":[8.969355E0,1.2812605E0,4.8117332E0,3.174219E-1,0E0,4.724946E-1,0E0,0E0,0E0,0E0,1.8062115E-2,0E0,4.6982765E-2,0E0,9.325224E-2,0E0,0E0],"parents":[2147483647,0,0,1,1,2,2,3,3,5,5,10,10,12,12,14,14],"right_children":[2,4,6,8,-1,10,-1,-1,-1,-1,12,-1,14,-1,16,-1,-1],"split_conditions":[1E0,7.8E1,9E0,5E3,6.6779375E-2,3E0,-1.4836586E-1,-1.580876E-3,-1.4251806E-1,-1.6533868E-2,3E1,5.6441244E-2,5.9E1,1.6190755E-1,8.1E0,1.0406485E-2,1.07313074E-1],"split_indices":[8,9,2,10,0,2,0,0,0,0,1,0,1,0,3,0,0],"split_type":[0,0,0,0,0,0,0,0,0,0,0,0,0,0,0,0,0],"sum_hessian":[8.01019E1,4.9064568E1,3.103733E1,4.672064E1,2.3439298E0,2.5047184E1,5.990145E0,1.5077145E0,4.521292E1,1.5603162E0,2.3486868E1,1.8515062E0,2.1635363E1,1.6460474E1,5.174889E0,1.3839035E0,3.7909853E0],"tree_param":{"num_deleted":"0","num_feature":"11","num_nodes":"17","size_leaf_vector":"1"}},{"base_weights":[2.3465997E-1,4.9739766E-1,-2.4868384E-1,-9.097532E-2,5.1486427E-1,-5.0351046E-2,-3.5767913E-1,1.6276598E-1,3.7345338E-1,1.8821372E-1,-3.5057777E-1,-4.09017E-1,-6.776804E-2,3.252403E-2,4.0281206E-1,-1.4657158E-1,-1.7933437E-1,-2.653073E-1,-4.643926E-1,3.7264735E-2,-4.841571E-2,1.6406013E-1,2.667175E-1,-1.1306501E-1,-1.5411686E-2,-1.3299578E-1,-5.7329003E-2,-2.67228E-1,-1.5679029E-1,1.3792777E-1,3.912259E-2,-1.1474707E-1,1.02462E-1,-9.7381674E-2,3.560694E-2,-1.0514397E-1,-3.9371822E-2],"categories":[],"categories_nodes":[],"categories_segments":[],"categories_sizes":[],"default_left":[0,0,0,0,0,0,0,0,0,0,0,0,0,0,0,0,0,0,0,0,0,0,0,0,0,0,0,0,0,0,0,0,0,0,0,0,0],"id":14,"left_children":[1,3,5,-1,7,9,11,-1,13,-1,15,17,19,-1,21,-1,23,25,27,-1,-1,-1,29,-1,31,-1,33,35,-1,-1,-1,-1,-1,-1,-1,-1,-1],"loss_changes":[1.3057389E1,1.0835037E0,7.717252E-1,0E0,5.294037E-2,3.0930274E0,3.2073545E-1,0E0,6.445575E-2,0E0,1.5877676E-1,3.3498526E-2,1.0489298E-1,0E0,9.218168E-2,0E0,1.9602805E-1,2.6372486E-1,8.26025E-3,0E0,0E0,0E0,1.556924E-1,0E0,7.135801E-1,0E0,2.6200742E-1,1.0425866E-2,0E0,0E0,0E0,0E0,0E0,0E0,0E0,0E0,0E0],"parents":[2147483647,0,0,1,1,2,2,4,4,5,5,6,6,8,8,10,10,11,11,12,12,14,14,16,16,17,17,18,18,22,22,24,24,26,26,27,27],"right_children":[2,4,6,-1,8,10,12,-1,14,-1,16,18,20,-1,22,-1,24,26,28,-1,-1,-1,30,-1,32,-1,34,36,-1,-1,-1,-1,-1,-1,-1,-1,-1],"split_conditions":[2E0,6E0,1E0,-9.097532E-2,8.5E1,7E0,5.9E1,1.6276598E-1,7.7E0,1.8821372E-1,4.4E1,6.7E1,8.1E0,3.252403E-2,4.3E1,-1.4657158E-1,6.4E0,4.5E1,6.1E0,3.7264735E-2,-4.841571E-2,1.6406013E-1,7.8E0,-1.1306501E-1,3E0,-1.3299578E-1,6.6E0,5E1,-1.5679029E-1,1.3792777E-1,3.912259E-2,-1.1474707E-1,1.02462E-1,-9.7381674E-2,3.560694E-2,-1.0514397E-1,-3.9371822E-2],"split_indices":[7,4,8,0,5,6,1,0,3,0,1,9,3,0,1,0,3,1,3,0,0,0,3,0,2,0,3,1,0,0,0,0,0,0,0,0,0],"split_type":[0,0,0,0,0,0,0,0,0,0,0,0,0,0,0,0,0,0,0,0,0,0,0,0,0,0,0,0,0,0,0,0,0,0,0,0,0],"sum_hessian":[1.0084603E2,6.5313576E1,3.5532455E1,1.045109E0,6.426846E1,1.3120235E1,2.241222E1,5.1372707E1,1.2895757E1,3.693305E0,9.42693E0,1.8691473E1,3.7207475E0,1.7539983E0,1.1141759E1,4.194094E0,5.2328362E0,6.8098187E0,1.1881654E1,1.1124926E0,2.608255E0,3.946322E0,7.1954365E0,1.7838738E0,3.4489622E0,3.0595427E0,3.750276E0,3.9837584E0,7.897895E0,1.9959016E0,5.199535E0,1.6650884E0,1.7838738E0,1.1539311E0,2.596345E0,1.4926736E0,2.491085E0],"tree_param":{"num_deleted":"0","num_feature":"11","num_nodes":"37","size_leaf_vector":"1"}},{"base_weights":[-1.08773455E-1,1.6268733E-1,-3.6527798E-1,-2.8805342E-1,3.0711544E-1,5.1642578E-2,-3.898283E-1,-1.2715328E-2,-3.4786737E-1,-9.896945E-2,3.5141093E-1,-4.5479834E-1,-2.4913186E-1,-1.3111795E-1,-1.4921378E-1,1.12878054E-1,4.0612954E-1,-3.2631752E-1,-1.5629952E-1,-1.18841864E-1,-1.8397947E-1,3.2776892E-3,-8.636283E-2,1.0661354E-1,-7.109851E-2,2.8124386E-1,1.4103493E-1,-1.3575293E-1,-1.8739343E-1,-4.2708896E-2,-2.4892855E-1,1.2150524E-1,7.145266E-3,-7.972863E-2,1.28666945E-2,-3.996624E-2,3.817342E-2,-1.1400265E-1,-3.9849192E-2],"categories":[],"categories_nodes":[],"categories_segments":[],"categories_sizes":[],"default_left":[0,0,0,0,0,0,0,0,0,0,0,0,0,0,0,0,0,0,0,0,0,0,0,0,0,0,0,0,0,0,0,0,0,0,0,0,0,0,0],"id":15,"left_children":[1,3,5,7,9,-1,11,-1,13,-1,15,17,19,-1,21,23,25,27,-1,-1,29,-1,-1,-1,-1,31,-1,-1,33,35,37,-1,-1,-1,-1,-1,-1,-1,-1],"loss_changes":[5.17949E0,2.4591398E0,5.69993E-1,1.2269312E-1,9.0778065E-1,0E0,2.2268915E-1,0E0,6.559843E-2,0E0,3.0294704E-1,3.355694E-2,5.9511364E-2,0E0,8.766012E-2,6.247828E-1,3.8403988E-2,1.04797006E-1,0E0,0E0,9.438166E-2,0E0,0E0,0E0,0E0,3.0014122E-1,0E0,0E0,1.3510111E-1,9.096983E-2,6.568846E-2,0E0,0E0,0E0,0E0,0E0,0E0,0E0,0E0],"parents":[2147483647,0,0,1,1,2,2,3,3,4,4,6,6,8,8,10,10,11,11,12,12,14,14,15,15,16,16,17,17,20,20,25,25,28,28,29,29,30,30],"right_children":[2,4,6,8,10,-1,12,-1,14,-1,16,18,20,-1,22,24,26,28,-1,-1,30,-1,-1,-1,-1,32,-1,-1,34,36,38,-1,-1,-1,-1,-1,-1,-1,-1],"split_conditions":[5E1,1E0,3.7E3,6.1E0,6.2E0,5.1642578E-2,9E1,-1.2715328E-2,5.3E1,-9.896945E-2,4.3E1,7.3E0,6.1E0,-1.3111795E-1,8.5E0,6.6E0,7E0,7.2E0,-1.5629952E-1,-1.18841864E-1,7.7E0,3.2776892E-3,-8.636283E-2,1.0661354E-1,-7.109851E-2,6.5E0,1.4103493E-1,-1.3575293E-1,7.5E3,1E0,4.3E1,1.2150524E-1,7.145266E-3,-7.972863E-2,1.28666945E-2,-3.996624E-2,3.817342E-2,-1.1400265E-1,-3.9849192E-2],"split_indices":[5,7,10,3,3,0,5,0,1,0,1,3,3,0,3,3,4,3,0,0,3,0,0,0,0,3,0,0,10,0,1,0,0,0,0,0,0,0,0],"split_type":[0,0,0,0,0,0,0,0,0,0,0,0,0,0,0,0,0,0,0,0,0,0,0,0,0,0,0,0,0,0,0,0,0,0,0,0,0,0,0],"sum_hessian":[7.253146E1,3.541609E1,3.7115376E1,8.353014E0,2.7063076E1,1.3587948E0,3.575658E1,1.9700773E0,6.3829365E0,1.3403156E0,2.572276E1,2.2933836E1,1.2822744E1,3.5768669E0,2.8060694E0,5.3711934E0,2.0351566E1,9.81472E0,1.3119117E1,2.377664E0,1.0445081E1,1.7296847E0,1.0763847E0,3.16309E0,2.2081037E0,8.722621E0,1.1628945E1,3.9602077E0,5.854512E0,3.8117433E0,6.633337E0,5.5032573E0,3.219364E0,4.25306E0,1.6014524E0,2.6281884E0,1.183555E0,2.0479383E0,4.5853987E0],"tree_param":{"num_deleted":"0","num_feature":"11","num_nodes":"39","size_leaf_vector":"1"}},{"base_weights":[-1.4205684E-1,-3.8386244E-1,2.1957299E-1,-4.267477E-1,1.4309904E-1,3.842712E-1,-1.3994911E-1,-4.3796325E-1,-2.1780241E-2,1.2689985E-1,-8.835008E-2,-1.721623E-2,4.1766527E-1,-1.4698696E-1,-3.4058267E-1,4.530262E-1,2.4277571E-1,4.3392994E-2,-3.8926426E-1,5.226459E-2,1.4239495E-1,7.988358E-3,9.091886E-2,-8.185355E-2,-1.4400832E-1],"categories":[],"categories_nodes":[],"categories_segments":[],"categories_sizes":[],"default_left":[0,0,0,0,0,0,0,0,0,0,0,0,0,0,0,0,0,0,0,0,0,0,0,0,0],"id":16,"left_children":[1,3,5,7,9,11,-1,13,-1,-1,-1,-1,15,-1,17,19,21,-1,23,-1,-1,-1,-1,-1,-1],"loss_changes":[6.162342E0,1.0106473E0,3.3983598E0,1.2353754E-1,6.036242E-1,3.708923E-1,0E0,2.4053097E-2,0E0,0E0,0E0,0E0,2.600503E-2,0E0,4.4382727E-1,2.062273E-2,6.820011E-2,0E0,2.9433727E-2,0E0,0E0,0E0,0E0,0E0,0E0],"parents":[2147483647,0,0,1,1,2,2,3,3,4,4,5,5,7,7,12,12,14,14,15,15,16,16,18,18],"right_children":[2,4,6,8,10,12,-1,14,-1,-1,-1,-1,16,-1,18,20,22,-1,24,-1,-1,-1,-1,-1,-1],"split_conditions":[1E0,1E1,9E0,7.8E1,7E0,3E0,-1.3994911E-1,8E3,-2.1780241E-2,1.2689985E-1,-8.835008E-2,-1.721623E-2,5.9E1,-1.4698696E-1,7.2E0,3E1,8.1E0,4.3392994E-2,3E0,5.226459E-2,1.4239495E-1,7.988358E-3,9.091886E-2,-8.185355E-2,-1.4400832E-1],"split_indices":[8,2,2,9,4,2,0,10,0,0,0,0,1,0,3,1,3,0,2,0,0,0,0,0,0],"split_type":[0,0,0,0,0,0,0,0,0,0,0,0,0,0,0,0,0,0,0,0,0,0,0,0,0],"sum_hessian":[6.850789E1,4.101891E1,2.748898E1,3.8107788E1,2.9111211E0,2.2522188E1,4.96679E0,3.6708588E1,1.3992E0,1.7958255E0,1.1152956E0,1.5327016E0,2.0989487E1,2.1303108E1,1.54054785E1,1.6136492E1,4.8529944E0,1.2249335E0,1.4180545E1,1.8132669E0,1.4323226E1,1.3727936E0,3.4802008E0,7.9672923E0,6.213252E0],"tree_param":{"num_deleted":"0","num_feature":"11","num_nodes":"25","size_leaf_vector":"1"}},{"base_weights":[2.010613E-1,4.3275893E-1,-2.1563004E-1,4.477929E-1,-1.8411946E-2,-8.034876E-2,-3.521842E-1,4.760153E-1,3.160933E-1,1.6670567E-1,-2.6913926E-1,-1.458476E-1,-2.4615754E-1,7.1692556E-2,1.4640926E-1,2.6208961E-2,3.4335828E-1,-3.4009394E-1,-4.3151848E-2,-3.6365363E-1,1.55401705E-2,1.4772114E-1,2.1457401E-1,-1.6233365E-1,-1.4226507E-1,3.288656E-2,-3.7939098E-2,-4.185739E-2,-1.366805E-1,-1.03808425E-1,1.0139532E-1,1.2562488E-1,2.4832135E-2,-1.1695812E-1,1.8146874E-2],"categories":[],"categories_nodes":[],"categories_segments":[],"categories_sizes":[],"default_left":[0,0,0,0,0,0,0,0,0,0,0,0,0,0,0,0,0,0,0,0,0,0,0,0,0,0,0,0,0,0,0,0,0,0,0],"id":17,"left_children":[1,3,5,7,-1,9,11,13,15,-1,17,-1,19,-1,-1,-1,21,23,25,27,29,-1,31,33,-1,-1,-1,-1,-1,-1,-1,-1,-1,-1,-1],"loss_changes":[8.675324E0,4.5432568E-1,5.708208E-1,5.72443E-2,0E0,2.2613986E0,1.0539508E-1,8.816719E-3,5.0067663E-2,0E0,2.1358979E-1,0E0,3.3989763E-1,0E0,0E0,0E0,1.0797608E-1,1.778543E-1,7.173583E-2,9.188157E-2,6.2145025E-1,0E0,1.7370701E-1,3.3370683E-1,0E0,0E0,0E0,0E0,0E0,0E0,0E0,0E0,0E0,0E0,0E0],"parents":[2147483647,0,0,1,1,2,2,3,3,5,5,6,6,7,7,8,8,10,10,12,12,16,16,17,17,18,18,19,19,20,20,22,22,23,23],"right_children":[2,4,6,8,-1,10,12,14,16,-1,18,-1,20,-1,-1,-1,22,24,26,28,30,-1,32,34,-1,-1,-1,-1,-1,-1,-1,-1,-1,-1,-1],"split_conditions":[2E0,7.4E1,7E0,8.5E1,-1.8411946E-2,1E0,4.4E1,6.1E0,7.7E0,1.6670567E-1,5.9E1,-1.458476E-1,6E0,7.1692556E-2,1.4640926E-1,2.6208961E-2,4.3E1,6.7E0,8.1E0,6.1E0,6.4E0,1.4772114E-1,7.8E0,4.5E1,-1.4226507E-1,3.288656E-2,-3.7939098E-2,-4.185739E-2,-1.366805E-1,-1.03808425E-1,1.0139532E-1,1.2562488E-1,2.4832135E-2,-1.1695812E-1,1.8146874E-2],"split_indices":[7,9,6,5,0,8,1,3,3,0,1,0,2,0,0,0,1,3,3,3,3,0,3,1,0,0,0,0,0,0,0,0,0,0,0],"split_type":[0,0,0,0,0,0,0,0,0,0,0,0,0,0,0,0,0,0,0,0,0,0,0,0,0,0,0,0,0,0,0,0,0,0,0],"sum_hessian":[8.789E1,5.645829E1,3.1431707E1,5.488228E1,1.5760128E0,1.6587364E1,1.4844342E1,4.3043842E1,1.1838433E1,3.3517928E0,1.3235572E1,4.973995E0,9.870347E0,3.0843935E0,3.995945E1,1.7086371E0,1.0129796E1,9.688643E0,3.5469284E0,6.54307E0,3.3272774E0,3.3867462E0,6.74305E0,5.1170626E0,4.571581E0,1.1402266E0,2.4067018E0,2.6357346E0,3.907335E0,1.5340036E0,1.7932739E0,1.791159E0,4.951891E0,2.1609046E0,2.9561582E0],"tree_param":{"num_deleted":"0","num_feature":"11","num_nodes":"35","size_leaf_vector":"1"}},{"base_weights":[-9.443679E-2,1.4022578E-1,-3.2580575E-1,-2.4500771E-1,2.5979185E-1,4.782132E-2,-3.5100892E-1,-9.567482E-2,-1.2003078E-1,-9.157922E-2,2.9960635E-1,-4.221507E-1,-2.0996696E-1,-1.0413251E-1,3.144412E-2,1.03045784E-1,3.472045E-1,-2.7921534E-1,-1.5030013E-1,-1.0929227E-1,-1.4697027E-1,2.523562E-1,-9.344297E-2,2.26637E-1,4.119635E-1,-1.2686132E-1,-1.3303879E-1,-8.376715E-3,-2.1529995E-1,1.7350208E-2,1.07307464E-1,1.0760727E-1,-8.166908E-3,1.5888959E-1,8.0723286E-2,-6.507065E-2,2.3431519E-2,-3.115646E-2,4.0358767E-2,-1.0616936E-1,-3.13921E-2],"categories":[],"categories_nodes":[],"categories_segments":[],"categories_sizes":[],"default_left":[0,0,0,0,0,0,0,0,0,0,0,0,0,0,0,0,0,0,0,0,0,0,0,0,0,0,0,0,0,0,0,0,0,0,0,0,0,0,0,0,0],"id":18,"left_children":[1,3,5,7,9,-1,11,13,-1,-1,15,17,19,-1,-1,21,23,25,-1,-1,27,29,-1,31,33,-1,35,37,39,-1,-1,-1,-1,-1,-1,-1,-1,-1,-1,-1,-1],"loss_changes":[3.5570724E0,1.5747958E0,4.5787072E-1,1.5361643E-1,6.6564155E-1,0E0,2.2799277E-1,3.1541798E-1,0E0,0E0,1.9200993E-1,8.536506E-2,6.86723E-2,0E0,0E0,4.6038157E-1,5.637598E-2,1.403873E-1,0E0,0E0,9.860304E-2,8.355364E-2,0E0,3.0894184E-1,4.670334E-2,0E0,1.2496478E-1,7.5939216E-2,7.126245E-2,0E0,0E0,0E0,0E0,0E0,0E0,0E0,0E0,0E0,0E0,0E0,0E0],"parents":[2147483647,0,0,1,1,2,2,3,3,4,4,6,6,7,7,10,10,11,11,12,12,15,15,16,16,17,17,20,20,21,21,23,23,24,24,26,26,27,27,28,28],"right_children":[2,4,6,8,10,-1,12,14,-1,-1,16,18,20,-1,-1,22,24,26,-1,-1,28,30,-1,32,34,-1,36,38,40,-1,-1,-1,-1,-1,-1,-1,-1,-1,-1,-1,-1],"split_conditions":[5E1,1E0,3.7E3,8.4E0,6.2E0,4.782132E-2,9E1,3.3E1,-1.2003078E-1,-9.157922E-2,4.3E1,7.3E0,6.1E0,-1.0413251E-1,3.144412E-2,6.7E0,7E0,7.2E0,-1.5030013E-1,-1.0929227E-1,7.7E0,4E1,-9.344297E-2,6.5E0,4.5E1,-1.2686132E-1,7.5E3,5E1,7.8E0,1.7350208E-2,1.07307464E-1,1.0760727E-1,-8.166908E-3,1.5888959E-1,8.0723286E-2,-6.507065E-2,2.3431519E-2,-3.115646E-2,4.0358767E-2,-1.0616936E-1,-3.13921E-2],"split_indices":[5,7,10,3,3,0,5,1,0,0,1,3,3,0,0,3,4,3,0,0,3,5,0,3,1,0,10,1,3,0,0,0,0,0,0,0,0,0,0,0,0],"split_type":[0,0,0,0,0,0,0,0,0,0,0,0,0,0,0,0,0,0,0,0,0,0,0,0,0,0,0,0,0,0,0,0,0,0,0,0,0,0,0,0,0],"sum_hessian":[6.3673992E1,3.1807568E1,3.1866426E1,7.285395E0,2.4522171E1,1.3105731E0,3.0555855E1,4.535385E0,2.75001E0,1.1752731E0,2.3346899E1,1.8986135E1,1.1569719E1,1.6876204E0,2.8477647E0,5.168414E0,1.8178484E1,8.364479E0,1.0621656E1,1.9671873E0,9.602531E0,4.0873632E0,1.0810509E0,7.924481E0,1.0254004E1,3.263944E0,5.100535E0,3.5416236E0,6.060908E0,1.9799842E0,2.107379E0,4.9412007E0,2.9832802E0,4.138891E0,6.1151123E0,3.631058E0,1.4694772E0,2.28694E0,1.2546836E0,1.7149314E0,4.345977E0],"tree_param":{"num_deleted":"0","num_feature":"11","num_nodes":"41","size_leaf_vector":"1"}},{"base_weights":[-1.2647083E-1,-3.4741846E-1,1.9116169E-1,-3.87822E-1,5.1840294E-2,3.3243397E-1,-1.3171527E-1,-2.5965134E-3,-4.0471843E-1,-1.7854415E-2,3.6524752E-1,-1.3899049E-1,-2.9876137E-1,4.0129825E-1,2.0086703E-1,4.6459615E-2,-3.522552E-1,4.7274638E-2,1.2641853E-1,5.887156E-3,2.5518763E-1,-6.903791E-2,-1.3648039E-1,3.6375917E-2,1.00302115E-1],"categories":[],"categories_nodes":[],"categories_segments":[],"categories_sizes":[],"default_left":[0,0,0,0,0,0,0,0,0,0,0,0,0,0,0,0,0,0,0,0,0,0,0,0,0],"id":19,"left_children":[1,3,5,7,-1,9,-1,-1,11,-1,13,-1,15,17,19,-1,21,-1,-1,-1,23,-1,-1,-1,-1],"loss_changes":[4.2799377E0,8.1871414E-1,2.396263E0,2.110796E-1,0E0,2.9460335E-1,0E0,0E0,6.048584E-2,0E0,3.623748E-2,0E0,3.9972734E-1,7.890463E-3,4.961987E-2,0E0,5.8698058E-2,0E0,0E0,0E0,3.8353205E-3,0E0,0E0,0E0,0E0],"parents":[2147483647,0,0,1,1,2,2,3,3,5,5,8,8,10,10,12,12,13,13,14,14,16,16,20,20],"right_children":[2,4,6,8,-1,10,-1,-1,12,-1,14,-1,16,18,20,-1,22,-1,-1,-1,24,-1,-1,-1,-1],"split_conditions":[1E0,7.8E1,9E0,5E3,5.1840294E-2,3E0,-1.3171527E-1,-2.5965134E-3,8E3,-1.7854415E-2,5.9E1,-1.3899049E-1,7.2E0,3E1,8.1E0,4.6459615E-2,3E0,4.7274638E-2,1.2641853E-1,5.887156E-3,8.2E0,-6.903791E-2,-1.3648039E-1,3.6375917E-2,1.00302115E-1],"split_indices":[8,9,2,10,0,2,0,0,10,0,1,0,3,1,3,0,2,0,0,0,3,0,0,0,0],"split_type":[0,0,0,0,0,0,0,0,0,0,0,0,0,0,0,0,0,0,0,0,0,0,0,0,0],"sum_hessian":[5.9038685E1,3.4763294E1,2.4275389E1,3.24941E1,2.269196E0,2.0216125E1,4.059264E0,1.4507403E0,3.104336E1,1.4988658E0,1.8717258E1,1.781885E1,1.3224509E1,1.4168624E1,4.548635E0,1.1950963E0,1.2029413E1,1.7528458E0,1.2415778E1,1.3628117E0,3.1858232E0,6.974739E0,5.054674E0,2.1238823E0,1.0619411E0],"tree_param":{"num_deleted":"0","num_feature":"11","num_nodes":"25","size_leaf_vector":"1"}},{"base_weights":[1.7587154E-1,3.7999627E-1,-1.8522371E-1,3.945732E-1,-1.5711863E-2,-5.9220534E-2,-3.1331557E-1,4.2345533E-1,2.702806E-1,1.4907522E-1,-2.2578914E-1,-1.3905858E-1,-1.981651E-1,6.001809E-2,1.3078411E-1,2.0919874E-2,2.9611385E-1,-2.9653853E-1,-2.3633668E-2,-3.2128385E-1,5.2578833E-2,1.3628595E-1,1.7688109E-1,-1.13771744E-1,-1.3404109E-1,2.8887855E-2,-2.8929997E-2,-2.8291643E-2,-1.2685658E-1,-9.533115E-2,9.79291E-2,1.14137955E-1,1.5297832E-2,-1.0745759E-1,2.9538235E-2],"categories":[],"categories_nodes":[],"categories_segments":[],"categories_sizes":[],"default_left":[0,0,0,0,0,0,0,0,0,0,0,0,0,0,0,0,0,0,0,0,0,0,0,0,0,0,0,0,0,0,0,0,0,0,0],"id":20,"left_children":[1,3,5,7,-1,9,11,13,15,-1,17,-1,19,-1,-1,-1,21,23,25,27,29,-1,31,33,-1,-1,-1,-1,-1,-1,-1,-1,-1,-1,-1],"loss_changes":[5.812422E0,3.364005E-1,4.4637334E-1,5.9940338E-2,0E0,1.5716141E0,1.5119553E-1,1.786375E-2,4.112941E-2,0E0,1.7621905E-1,0E0,3.1637055E-1,0E0,0E0,0E0,1.1306119E-1,2.0741016E-1,4.7768496E-2,1.1336231E-1,5.1488984E-1,0E0,1.7243345E-1,3.2495093E-1,0E0,0E0,0E0,0E0,0E0,0E0,0E0,0E0,0E0,0E0,0E0],"parents":[2147483647,0,0,1,1,2,2,3,3,5,5,6,6,7,7,8,8,10,10,12,12,16,16,17,17,18,18,19,19,20,20,22,22,23,23],"right_children":[2,4,6,8,-1,10,12,14,16,-1,18,-1,20,-1,-1,-1,22,24,26,28,30,-1,32,34,-1,-1,-1,-1,-1,-1,-1,-1,-1,-1,-1],"split_conditions":[2E0,7.4E1,7E0,8.5E1,-1.5711863E-2,1E0,4.4E1,6.1E0,7.7E0,1.4907522E-1,5.9E1,-1.3905858E-1,6.4E0,6.001809E-2,1.3078411E-1,2.0919874E-2,7.8E0,6.7E0,8.1E0,6.1E0,3E0,1.3628595E-1,4.3E1,4.5E1,-1.3404109E-1,2.8887855E-2,-2.8929997E-2,-2.8291643E-2,-1.2685658E-1,-9.533115E-2,9.79291E-2,1.14137955E-1,1.5297832E-2,-1.0745759E-1,2.9538235E-2],"split_indices":[7,9,6,5,0,8,1,3,3,0,1,0,3,0,0,0,3,3,3,3,2,0,1,1,0,0,0,0,0,0,0,0,0,0,0],"split_type":[0,0,0,0,0,0,0,0,0,0,0,0,0,0,0,0,0,0,0,0,0,0,0,0,0,0,0,0,0,0,0,0,0,0,0],"sum_hessian":[7.690201E1,4.9096016E1,2.780599E1,4.7579338E1,1.5166794E0,1.4754453E1,1.3051538E1,3.6654854E1,1.0924484E1,2.9434905E0,1.1810963E1,4.350684E0,8.700854E0,2.842184E0,3.3812668E1,1.6687851E0,9.255699E0,8.403175E0,3.4077866E0,5.64685E0,3.0540042E0,2.7704182E0,6.4852805E0,4.5843678E0,3.8188078E0,1.1653451E0,2.2424417E0,2.3419144E0,3.304936E0,1.2300894E0,1.8239148E0,1.7053285E0,4.779952E0,1.8109876E0,2.7733803E0],"tree_param":{"num_deleted":"0","num_feature":"11","num_nodes":"35","size_leaf_vector":"1"}},{"base_weights":[-8.068564E-2,1.2165676E-1,-2.8788063E-1,-2.0484485E-1,2.204721E-1,4.4556353E-2,-3.1338188E-1,-6.0205426E-2,-1.1151365E-1,-8.458684E-2,2.5626528E-1,-3.9028513E-1,-1.7438863E-1,-9.598273E-2,3.7291195E-2,9.0409696E-2,2.9835695E-1,-2.3342822E-1,-1.4499488E-1,-1.00569434E-1,-1.1414277E-1,8.3041616E-2,-5.7031814E-2,1.7771442E-1,3.667839E-1,-1.1864641E-1,-8.209577E-2,2.0874586E-2,-1.8563618E-1,9.53814E-2,-2.1112913E-2,1.4721787E-1,6.810017E-2,-5.1241025E-2,3.2328825E-2,-2.4055127E-2,4.6995137E-2,-9.762327E-2,-2.4385678E-2],"categories":[],"categories_nodes":[],"categories_segments":[],"categories_sizes":[],"default_left":[0,0,0,0,0,0,0,0,0,0,0,0,0,0,0,0,0,0,0,0,0,0,0,0,0,0,0,0,0,0,0,0,0,0,0,0,0,0,0],"id":21,"left_children":[1,3,5,7,9,-1,11,13,-1,-1,15,17,19,-1,-1,21,23,25,-1,-1,27,-1,-1,29,31,-1,33,35,37,-1,-1,-1,-1,-1,-1,-1,-1,-1,-1],"loss_changes":[2.4444818E0,1.005941E0,3.658557E-1,1.571193E-1,4.920293E-1,0E0,2.2513676E-1,2.8787956E-1,0E0,0E0,1.2880063E-1,1.3308692E-1,7.3931456E-2,0E0,0E0,3.6380297E-1,7.814646E-2,1.6882735E-1,0E0,0E0,9.9820375E-2,0E0,0E0,3.0845958E-1,6.4258456E-2,0E0,1.1114327E-1,7.211077E-2,6.980786E-2,0E0,0E0,0E0,0E0,0E0,0E0,0E0,0E0,0E0,0E0],"parents":[2147483647,0,0,1,1,2,2,3,3,4,4,6,6,7,7,10,10,11,11,12,12,15,15,16,16,17,17,20,20,23,23,24,24,26,26,27,27,28,28],"right_children":[2,4,6,8,10,-1,12,14,-1,-1,16,18,20,-1,-1,22,24,26,-1,-1,28,-1,-1,30,32,-1,34,36,38,-1,-1,-1,-1,-1,-1,-1,-1,-1,-1],"split_conditions":[5E1,1E0,3.7E3,8.4E0,6.2E0,4.4556353E-2,9E1,3.3E1,-1.1151365E-1,-8.458684E-2,4.3E1,7.3E0,6.1E0,-9.598273E-2,3.7291195E-2,6.6E0,7E0,7.2E0,-1.4499488E-1,-1.00569434E-1,7.7E0,8.3041616E-2,-5.7031814E-2,6.5E0,4.5E1,-1.1864641E-1,7.5E3,5E1,4.3E1,9.53814E-2,-2.1112913E-2,1.4721787E-1,6.810017E-2,-5.1241025E-2,3.2328825E-2,-2.4055127E-2,4.6995137E-2,-9.762327E-2,-2.4385678E-2],"split_indices":[5,7,10,3,3,0,5,1,0,0,1,3,3,0,0,3,4,3,0,0,3,0,0,3,1,0,10,1,1,0,0,0,0,0,0,0,0,0,0],"split_type":[0,0,0,0,0,0,0,0,0,0,0,0,0,0,0,0,0,0,0,0,0,0,0,0,0,0,0,0,0,0,0,0,0,0,0,0,0,0,0],"sum_hessian":[5.6471615E1,2.877924E1,2.7692377E1,6.437083E0,2.2342155E1,1.2625388E0,2.6429838E1,4.1771536E0,2.2599297E0,1.0284503E0,2.1313705E1,1.5851473E1,1.0578366E1,1.4300423E0,2.747111E0,4.951404E0,1.63623E1,7.207787E0,8.643685E0,1.6387874E0,8.939579E0,2.982701E0,1.968703E0,7.2236066E0,9.138695E0,2.7014596E0,4.506327E0,3.3399704E0,5.5996084E0,4.435229E0,2.7883778E0,3.5130987E0,5.625596E0,3.1397197E0,1.3666074E0,2.1495185E0,1.190452E0,1.4880154E0,4.1115932E0],"tree_param":{"num_deleted":"0","num_feature":"11","num_nodes":"39","size_leaf_vector":"1"}},{"base_weights":[-1.108885E-1,-3.1220743E-1,1.6774641E-1,-3.574096E-1,4.196695E-2,2.8987196E-1,-1.2412446E-1,-1.7898344E-2,-3.71585E-1,-1.8208249E-2,3.219368E-1,-4.396459E-1,-2.586328E-1,1.07359804E-1,1.7002764E-1,-1.4803481E-1,-2.106078E-1,4.8520833E-2,-3.1649673E-1,4.366809E-3,6.586101E-2,-1.0835614E-1,1.4180797E-2,-5.6914136E-2,-1.295873E-1],"categories":[],"categories_nodes":[],"categories_segments":[],"categories_sizes":[],"default_left":[0,0,0,0,0,0,0,0,0,0,0,0,0,0,0,0,0,0,0,0,0,0,0,0,0],"id":22,"left_children":[1,3,5,7,-1,9,-1,-1,11,-1,13,15,17,-1,19,-1,21,-1,23,-1,-1,-1,-1,-1,-1],"loss_changes":[2.9932542E0,6.7913246E-1,1.7278192E0,9.7145796E-2,0E0,2.364837E-1,0E0,0E0,9.226751E-2,0E0,3.6527753E-2,8.4495544E-2,3.5531336E-1,0E0,3.7736386E-2,0E0,1.9775952E-1,0E0,8.38815E-2,0E0,0E0,0E0,0E0,0E0,0E0],"parents":[2147483647,0,0,1,1,2,2,3,3,5,5,8,8,10,10,11,11,12,12,14,14,16,16,18,18],"right_children":[2,4,6,8,-1,10,-1,-1,12,-1,14,16,18,-1,20,-1,22,-1,24,-1,-1,-1,-1,-1,-1],"split_conditions":[1E0,1E1,9E0,4.8E3,4.196695E-2,3E0,-1.2412446E-1,-1.7898344E-2,8E3,-1.8208249E-2,5.9E1,6E0,7.2E0,1.07359804E-1,8.1E0,-1.4803481E-1,6.5E0,4.8520833E-2,3E0,4.366809E-3,6.586101E-2,-1.0835614E-1,1.4180797E-2,-5.6914136E-2,-1.295873E-1],"split_indices":[8,2,2,10,0,2,0,0,10,0,1,2,3,0,3,0,3,0,2,0,0,0,0,0,0],"split_type":[0,0,0,0,0,0,0,0,0,0,0,0,0,0,0,0,0,0,0,0,0,0,0,0,0],"sum_hessian":[5.1427303E1,2.9785929E1,2.1641376E1,2.726893E1,2.516997E0,1.8299599E1,3.341778E0,1.4759531E0,2.5792978E1,1.4587018E0,1.6840897E1,1.4290019E1,1.1502959E1,1.2523161E1,4.3177366E0,1.0636865E1,3.653154E0,1.174604E0,1.0328355E1,1.3554065E0,2.9623299E0,2.0534742E0,1.5996797E0,6.1825953E0,4.1457596E0],"tree_param":{"num_deleted":"0","num_feature":"11","num_nodes":"25","size_leaf_vector":"1"}},{"base_weights":[1.5198867E-1,3.3200693E-1,-1.5877588E-1,3.4603179E-1,-1.30312685E-2,-4.269555E-2,-2.777131E-1,4.0758273E-1,2.7516708E-1,1.3580139E-1,-1.8950225E-1,-1.3321151E-1,-1.544512E-1,5.0593693E-2,4.3345967E-1,7.1296412E-3,3.230027E-1,-2.5808087E-1,-1.2363405E-2,-2.8291178E-1,7.231438E-2,1.4005046E-1,2.3191863E-1,-3.2682475E-2,2.6280902E-2,1.1863171E-1,1.4080319E-1,-7.538005E-2,-1.2669685E-1,2.5387308E-2,-2.281871E-2,-1.6131308E-2,-1.1967201E-1,-8.6452104E-2,9.395034E-2,-5.4007158E-2,1.2277255E-1,1.0521894E-1,7.988715E-3,-9.752806E-2,3.3668663E-2],"categories":[],"categories_nodes":[],"categories_segments":[],"categories_sizes":[],"default_left":[0,0,0,0,0,0,0,0,0,0,0,0,0,0,0,0,0,0,0,0,0,0,0,0,0,0,0,0,0,0,0,0,0,0,0,0,0,0,0,0,0],"id":23,"left_children":[1,3,5,7,-1,9,11,13,15,-1,17,-1,19,-1,21,23,25,27,29,31,33,-1,35,-1,-1,-1,37,39,-1,-1,-1,-1,-1,-1,-1,-1,-1,-1,-1,-1,-1],"loss_changes":[3.8993673E0,2.4599075E-1,3.4569055E-1,7.276201E-2,0E0,1.1248373E0,1.899355E-1,5.433035E-2,2.89832E-1,0E0,1.3926068E-1,0E0,2.7609992E-1,0E0,1.2535095E-2,5.132443E-2,1.9918871E-1,2.2032422E-1,3.3144917E-2,1.3286218E-1,4.3494144E-1,0E0,4.0521622E-1,0E0,0E0,0E0,1.5955102E-1,2.798802E-1,0E0,0E0,0E0,0E0,0E0,0E0,0E0,0E0,0E0,0E0,0E0,0E0,0E0],"parents":[2147483647,0,0,1,1,2,2,3,3,5,5,6,6,7,7,8,8,10,10,12,12,14,14,15,15,16,16,17,17,18,18,19,19,20,20,22,22,26,26,27,27],"right_children":[2,4,6,8,-1,10,12,14,16,-1,18,-1,20,-1,22,24,26,28,30,32,34,-1,36,-1,-1,-1,38,40,-1,-1,-1,-1,-1,-1,-1,-1,-1,-1,-1,-1,-1],"split_conditions":[2E0,7.4E1,7E0,8E3,-1.30312685E-2,1E0,4.4E1,6.1E0,7.3E0,1.3580139E-1,5.9E1,-1.3321151E-1,6E0,5.0593693E-2,5.3E1,3.9E1,4.3E1,6.7E0,8.1E0,6.1E0,6.4E0,1.4005046E-1,8.4E0,-3.2682475E-2,2.6280902E-2,1.1863171E-1,7.8E0,4.5E1,-1.2669685E-1,2.5387308E-2,-2.281871E-2,-1.6131308E-2,-1.1967201E-1,-8.6452104E-2,9.395034E-2,-5.4007158E-2,1.2277255E-1,1.0521894E-1,7.988715E-3,-9.752806E-2,3.3668663E-2],"split_indices":[7,9,6,10,0,8,1,3,3,0,1,0,2,0,1,1,1,3,3,3,3,0,3,0,0,0,3,1,0,0,0,0,0,0,0,0,0,0,0,0,0],"split_type":[0,0,0,0,0,0,0,0,0,0,0,0,0,0,0,0,0,0,0,0,0,0,0,0,0,0,0,0,0,0,0,0,0,0,0,0,0,0,0,0,0],"sum_hessian":[6.775986E1,4.286238E1,2.4897478E1,4.139442E1,1.4679611E0,1.3287813E1,1.1609664E1,1.9610106E1,2.1784313E1,2.5614188E0,1.0726395E1,3.8339162E0,7.7757483E0,2.6508112E0,1.6959295E1,3.4730144E0,1.8311298E1,7.4032965E0,3.3230982E0,4.805744E0,2.970004E0,1.342053E1,3.538764E0,1.27715E0,2.1958642E0,1.226485E1,6.046449E0,4.195372E0,3.207924E0,1.187108E0,2.1359901E0,2.1070204E0,2.6987238E0,1.1108752E0,1.859129E0,1.0603099E0,2.478454E0,1.4001585E0,4.646291E0,1.4854136E0,2.7099586E0],"tree_param":{"num_deleted":"0","num_feature":"11","num_nodes":"41","size_leaf_vector":"1"}},{"base_weights":[-6.622531E-2,1.0679184E-1,-2.510941E-1,-1.7327306E-1,1.9043262E-1,4.15084E-2,-2.7646086E-1,-4.1078378E-2,-1.03093185E-1,3.4910804E-4,2.579726E-1,-3.591712E-1,-1.3969377E-1,-8.878427E-2,3.619679E-2,1.4048643E-1,-1.503038E-1,1.4801887E-1,3.2342404E-1,-1.9314614E-1,-1.3993043E-1,-9.276733E-2,-8.15557E-2,-1.549636E-2,7.8810975E-2,3.764798E-3,-8.672319E-2,2.868331E-1,-2.3689585E-2,1.3541752E-1,1.8947075E-1,-1.1137032E-1,-4.041873E-2,5.7516214E-2,-1.6041903E-1,1.1227814E-1,3.5976287E-2,1.1438098E-1,9.767358E-3,4.2824283E-2,-4.1210525E-2,-1.3381277E-2,5.1645387E-2,-9.07231E-2,-1.9044403E-2],"categories":[],"categories_nodes":[],"categories_segments":[],"categories_sizes":[],"default_left":[0,0,0,0,0,0,0,0,0,0,0,0,0,0,0,0,0,0,0,0,0,0,0,0,0,0,0,0,0,0,0,0,0,0,0,0,0,0,0,0,0,0,0,0,0],"id":24,"left_children":[1,3,5,7,9,-1,11,13,-1,15,17,19,21,-1,-1,23,25,27,29,31,-1,-1,33,-1,-1,-1,-1,35,-1,-1,37,-1,39,41,43,-1,-1,-1,-1,-1,-1,-1,-1,-1,-1],"loss_changes":[1.685345E0,6.768633E-1,2.8884923E-1,1.4003877E-1,2.777536E-1,0E0,2.2299516E-1,2.413962E-1,0E0,1.620411E-1,6.703389E-2,1.665585E-1,8.0605716E-2,0E0,0E0,1.06917106E-1,8.724614E-2,2.6847306E-1,7.157791E-2,1.8526644E-1,0E0,0E0,1.11810714E-1,0E0,0E0,0E0,0E0,2.8913617E-2,0E0,0E0,1.7421536E-1,0E0,1.0992603E-1,5.5918343E-2,6.658971E-2,0E0,0E0,0E0,0E0,0E0,0E0,0E0,0E0,0E0,0E0],"parents":[2147483647,0,0,1,1,2,2,3,3,4,4,6,6,7,7,9,9,10,10,11,11,12,12,15,15,16,16,17,17,18,18,19,19,22,22,27,27,30,30,32,32,33,33,34,34],"right_children":[2,4,6,8,10,-1,12,14,-1,16,18,20,22,-1,-1,24,26,28,30,32,-1,-1,34,-1,-1,-1,-1,36,-1,-1,38,-1,40,42,44,-1,-1,-1,-1,-1,-1,-1,-1,-1,-1],"split_conditions":[5E1,1E0,3.7E3,8.4E0,4.3E1,4.15084E-2,9E1,3.3E1,-1.03093185E-1,4.2E3,7E0,7.3E0,6.1E0,-8.878427E-2,3.619679E-2,4E1,7.5E1,6.5E0,4.5E1,7.2E0,-1.3993043E-1,-9.276733E-2,7.7E0,-1.549636E-2,7.8810975E-2,3.764798E-3,-8.672319E-2,6.4E0,-2.3689585E-2,1.3541752E-1,6.6E0,-1.1137032E-1,3.7E1,5E1,7.8E0,1.1227814E-1,3.5976287E-2,1.1438098E-1,9.767358E-3,4.2824283E-2,-4.1210525E-2,-1.3381277E-2,5.1645387E-2,-9.07231E-2,-1.9044403E-2],"split_indices":[5,7,10,3,1,0,5,1,0,10,4,3,3,0,0,5,9,3,1,3,0,0,3,0,0,0,0,3,0,0,3,0,1,1,3,0,0,0,0,0,0,0,0,0,0],"split_type":[0,0,0,0,0,0,0,0,0,0,0,0,0,0,0,0,0,0,0,0,0,0,0,0,0,0,0,0,0,0,0,0,0,0,0,0,0,0,0,0,0,0,0,0,0],"sum_hessian":[5.0852615E1,2.6486477E1,2.4366137E1,5.8446093E0,2.0641869E1,1.2176194E0,2.3148518E1,3.9898808E0,1.8547287E0,5.675105E0,1.4966763E1,1.34116335E1,9.736884E0,1.2267959E0,2.763085E0,2.975126E0,2.6999793E0,6.801773E0,8.164989E0,6.3631954E0,7.048438E0,1.3835771E0,8.353307E0,1.3811418E0,1.5939842E0,1.6606948E0,1.0392843E0,4.0570045E0,2.7447686E0,2.963828E0,5.201162E0,2.2771816E0,4.086014E0,3.1207285E0,5.2325783E0,1.8471965E0,2.209808E0,1.6970228E0,3.504139E0,1.2506953E0,2.8353183E0,1.9735401E0,1.1471884E0,1.2629758E0,3.9696026E0],"tree_param":{"num_deleted":"0","num_feature":"11","num_nodes":"45","size_leaf_vector":"1"}},{"base_weights":[-9.946188E-2,-2.7944654E-1,1.437988E-1,-3.2346216E-1,4.8900466E-2,2.4953191E-1,-1.1692847E-1,-2.3164065E-3,-3.4178984E-1,-1.873979E-2,2.8060606E-1,-4.1581604E-1,-2.2399306E-1,3.1641397E-1,1.3997227E-1,-1.409276E-1,-2.3618433E-1,4.0237397E-2,-2.8228155E-1,2.3420337E-1,1.2859462E-1,3.274237E-3,5.5087663E-2,-1.008745E-1,-2.5270564E-2,-4.5820456E-2,-1.2303863E-1,1.00044906E-1,2.909531E-2],"categories":[],"categories_nodes":[],"categories_segments":[],"categories_sizes":[],"default_left":[0,0,0,0,0,0,0,0,0,0,0,0,0,0,0,0,0,0,0,0,0,0,0,0,0,0,0,0,0],"id":25,"left_children":[1,3,5,7,-1,9,-1,-1,11,-1,13,15,17,19,21,-1,23,-1,25,27,-1,-1,-1,-1,-1,-1,-1,-1,-1],"loss_changes":[2.0765743E0,5.7993865E-1,1.2503188E0,1.4178467E-1,0E0,1.8882251E-1,0E0,0E0,1.1234903E-1,0E0,3.7542224E-2,1.7957926E-2,2.7293926E-1,1.1796832E-2,2.6678436E-2,0E0,4.896912E-2,0E0,1.0310316E-1,9.3297064E-2,0E0,0E0,0E0,0E0,0E0,0E0,0E0,0E0,0E0],"parents":[2147483647,0,0,1,1,2,2,3,3,5,5,8,8,10,10,11,11,12,12,13,13,14,14,16,16,18,18,19,19],"right_children":[2,4,6,8,-1,10,-1,-1,12,-1,14,16,18,20,22,-1,24,-1,26,28,-1,-1,-1,-1,-1,-1,-1,-1,-1],"split_conditions":[1E0,7.8E1,9E0,5E3,4.8900466E-2,3E0,-1.1692847E-1,-2.3164065E-3,8E3,-1.873979E-2,5.9E1,6E0,7.2E0,6.6E0,8.1E0,-1.409276E-1,6.5E0,4.0237397E-2,3E0,5E1,1.2859462E-1,3.274237E-3,5.5087663E-2,-1.008745E-1,-2.5270564E-2,-4.5820456E-2,-1.2303863E-1,1.00044906E-1,2.909531E-2],"split_indices":[8,9,2,10,0,2,0,0,10,0,1,2,3,3,3,0,3,0,2,1,0,0,0,0,0,0,0,0,0],"split_type":[0,0,0,0,0,0,0,0,0,0,0,0,0,0,0,0,0,0,0,0,0,0,0,0,0,0,0,0,0],"sum_hessian":[4.551077E1,2.6071861E1,1.9438906E1,2.3957455E1,2.1144073E0,1.6668179E1,2.7707262E0,1.3923304E0,2.2565125E1,1.4182376E0,1.5249942E1,1.2303425E1,1.02617E1,1.1158796E1,4.0911455E0,8.219903E0,4.0835214E0,1.2543106E0,9.007389E0,8.222583E0,2.9362135E0,1.3499935E0,2.7411523E0,1.7308159E0,2.3527052E0,5.564046E0,3.4433434E0,3.9409554E0,4.281627E0],"tree_param":{"num_deleted":"0","num_feature":"11","num_nodes":"29","size_leaf_vector":"1"}},{"base_weights":[1.313726E-1,2.8862798E-1,-1.3366464E-1,3.0167317E-1,-9.712545E-3,-2.6151257E-2,-2.4490093E-1,3.6701864E-1,2.3087695E-1,1.2543407E-1,-1.5646613E-1,-1.2772357E-1,-1.1635855E-1,4.24721E-2,3.945276E-1,-4.933527E-3,2.7756572E-1,-1.0250545E-1,-8.312279E-2,-2.468034E-1,2.6918411E-2,1.29448E-1,1.9003613E-1,-3.128039E-2,2.0975936E-2,1.0480138E-1,1.1641273E-1,3.6290716E-2,-1.8686582E-1,-5.948963E-3,-1.1232173E-1,-5.1432196E-2,1.1237722E-1,9.860701E-2,2.5756257E-3,-1.1299672E-1,1.1279128E-4],"categories":[],"categories_nodes":[],"categories_segments":[],"categories_sizes":[],"default_left":[0,0,0,0,0,0,0,0,0,0,0,0,0,0,0,0,0,0,0,0,0,0,0,0,0,0,0,0,0,0,0,0,0,0,0,0,0],"id":26,"left_children":[1,3,5,7,-1,9,11,13,15,-1,17,-1,19,-1,21,23,25,-1,27,29,-1,-1,31,-1,-1,-1,33,-1,35,-1,-1,-1,-1,-1,-1,-1,-1],"loss_changes":[2.5956502E0,1.723361E-1,2.7500132E-1,8.8297606E-2,0E0,8.2295823E-1,2.1651977E-1,5.425358E-2,2.2870398E-1,0E0,1.189211E-1,0E0,2.3898697E-1,0E0,3.338313E-2,3.9970472E-2,1.5889108E-1,0E0,2.1507096E-1,1.4335963E-1,0E0,0E0,3.3933142E-1,0E0,0E0,0E0,1.5319505E-1,0E0,2.2827365E-1,0E0,0E0,0E0,0E0,0E0,0E0,0E0,0E0],"parents":[2147483647,0,0,1,1,2,2,3,3,5,5,6,6,7,7,8,8,10,10,12,12,14,14,15,15,16,16,18,18,19,19,22,22,26,26,28,28],"right_children":[2,4,6,8,-1,10,12,14,16,-1,18,-1,20,-1,22,24,26,-1,28,30,-1,-1,32,-1,-1,-1,34,-1,36,-1,-1,-1,-1,-1,-1,-1,-1],"split_conditions":[2E0,7.4E1,7E0,8E3,-9.712545E-3,1E0,4.4E1,6.1E0,7.3E0,1.2543407E-1,4.5E1,-1.2772357E-1,6E0,4.24721E-2,5.3E1,3.9E1,4.3E1,-1.0250545E-1,6.7E0,6.1E0,2.6918411E-2,1.29448E-1,8.4E0,-3.128039E-2,2.0975936E-2,1.0480138E-1,7.8E0,3.6290716E-2,5.9E1,-5.948963E-3,-1.1232173E-1,-5.1432196E-2,1.1237722E-1,9.860701E-2,2.5756257E-3,-1.1299672E-1,1.1279128E-4],"split_indices":[7,9,6,10,0,8,1,3,3,0,1,0,2,0,1,1,1,0,3,3,0,0,3,0,0,0,3,0,1,0,0,0,0,0,0,0,0],"split_type":[0,0,0,0,0,0,0,0,0,0,0,0,0,0,0,0,0,0,0,0,0,0,0,0,0,0,0,0,0,0,0,0,0,0,0,0,0],"sum_hessian":[6.035222E1,3.78221E1,2.2530117E1,3.6402946E1,1.4191554E0,1.2084837E1,1.0445281E1,1.6754375E1,1.964857E1,2.2399595E0,9.844877E0,3.3791318E0,7.066149E0,2.4904852E0,1.426389E1,3.3951342E0,1.6253435E1,1.7547615E0,8.090116E0,4.206209E0,2.8599398E0,1.1140038E1,3.1238532E0,1.290116E0,2.1050184E0,1.0437278E1,5.816157E0,2.670481E0,5.419635E0,1.9295005E0,2.2767088E0,1.0798563E0,2.0439968E0,1.2692034E0,4.5469537E0,2.1891215E0,3.2305133E0],"tree_param":{"num_deleted":"0","num_feature":"11","num_nodes":"37","size_leaf_vector":"1"}},{"base_weights":[-5.223691E-2,9.647492E-2,-2.1738191E-1,-2.0907013E-1,1.5510204E-1,3.9895862E-2,-2.4239911E-1,-9.504796E-2,-1.7581034E-2,2.0569442E-1,-9.507965E-2,-3.2759538E-1,-1.143745E-1,1.1836898E-1,1.5242861E-1,-1.5510418E-1,-1.3490433E-1,-2.1798868E-1,-2.1151677E-2,2.2520739E-1,1.1892714E-2,-1.0452713E-1,-3.1935254E-3,-8.762641E-2,-3.234341E-2,5.8284614E-2,-9.759644E-2,4.18856E-2,1.0841551E-1,-4.851648E-2,3.0708529E-2,5.0688643E-2,-3.2018848E-2,-8.383906E-2,4.056259E-3],"categories":[],"categories_nodes":[],"categories_segments":[],"categories_sizes":[],"default_left":[0,0,0,0,0,0,0,0,0,0,0,0,0,0,0,0,0,0,0,0,0,0,0,0,0,0,0,0,0,0,0,0,0,0,0],"id":27,"left_children":[1,3,5,7,9,-1,11,-1,-1,13,-1,15,17,-1,19,21,-1,23,25,27,29,-1,31,-1,-1,-1,33,-1,-1,-1,-1,-1,-1,-1,-1],"loss_changes":[1.1870672E0,4.9237302E-1,2.3212683E-1,5.5358917E-2,5.933711E-1,0E0,1.9855797E-1,0E0,0E0,1.4692008E-1,0E0,1.9257283E-1,9.37475E-2,0E0,1.7819434E-1,1.9532819E-1,0E0,7.0046782E-3,1.2547587E-1,8.468473E-2,1.2790208E-1,0E0,1.0278722E-1,0E0,0E0,0E0,1.1370063E-1,0E0,0E0,0E0,0E0,0E0,0E0,0E0,0E0],"parents":[2147483647,0,0,1,1,2,2,3,3,4,4,6,6,9,9,11,11,12,12,14,14,15,15,17,17,18,18,19,19,20,20,22,22,26,26],"right_children":[2,4,6,8,10,-1,12,-1,-1,14,-1,16,18,-1,20,22,-1,24,26,28,30,-1,32,-1,-1,-1,34,-1,-1,-1,-1,-1,-1,-1,-1],"split_conditions":[5E1,6.3E0,3.7E3,3.3E1,8.4E0,3.9895862E-2,9E1,-9.504796E-2,-1.7581034E-2,3E0,-9.507965E-2,7.3E0,1E0,1.1836898E-1,6.6E0,7.2E0,-1.3490433E-1,6.1E0,7.7E0,1E0,4.3E1,-1.0452713E-1,3.7E1,-8.762641E-2,-3.234341E-2,5.8284614E-2,4.3E1,4.18856E-2,1.0841551E-1,-4.851648E-2,3.0708529E-2,5.0688643E-2,-3.2018848E-2,-8.383906E-2,4.056259E-3],"split_indices":[5,3,10,1,3,0,5,0,0,2,0,3,0,0,3,3,0,3,3,8,1,0,1,0,0,0,1,0,0,0,0,0,0,0,0],"split_type":[0,0,0,0,0,0,0,0,0,0,0,0,0,0,0,0,0,0,0,0,0,0,0,0,0,0,0,0,0,0,0,0,0,0,0],"sum_hessian":[4.6481346E1,2.4676321E1,2.1805025E1,3.559467E0,2.1116856E1,1.1655532E0,2.0639473E1,1.4298543E0,2.1296127E0,1.9582275E1,1.534579E0,1.1456615E1,9.182857E0,2.8982558E0,1.668402E1,5.6891046E0,5.767511E0,3.7151856E0,5.467671E0,1.0594829E1,6.089192E0,1.9341369E0,3.7549677E0,1.2341144E0,2.4810712E0,1.0282962E0,4.439375E0,7.749484E0,2.845344E0,1.81621E0,4.2729816E0,1.1728613E0,2.5821066E0,1.1090866E0,3.3302882E0],"tree_param":{"num_deleted":"0","num_feature":"11","num_nodes":"35","size_leaf_vector":"1"}},{"base_weights":[-8.771629E-2,-2.506833E-1,1.2597942E-1,-2.9337963E-1,4.172321E-2,2.1821685E-1,-1.1030918E-1,-1.3276121E-1,-2.1893437E-1,-1.9029494E-2,2.4807489E-1,-1.2539196E-1,-1.3172576E-1,2.8432974E-1,1.1511536E-1,1.546964E-1,-2.607238E-1,2.0628498E-1,1.1975356E-1,9.079215E-4,4.6858437E-2,7.296685E-2,2.0895659E-3,-1.207342E-1,-3.5464983E-2,9.140452E-2,2.3166228E-2],"categories":[],"categories_nodes":[],"categories_segments":[],"categories_sizes":[],"default_left":[0,0,0,0,0,0,0,0,0,0,0,0,0,0,0,0,0,0,0,0,0,0,0,0,0,0,0],"id":28,"left_children":[1,3,5,7,-1,9,-1,-1,11,-1,13,-1,15,17,19,21,23,25,-1,-1,-1,-1,-1,-1,-1,-1,-1],"loss_changes":[1.4918314E0,4.422481E-1,9.3663585E-1,1.481061E-1,0E0,1.5427428E-1,0E0,0E0,2.3476309E-1,0E0,4.005146E-2,0E0,5.2324545E-1,1.7896473E-2,2.2159785E-2,5.9592463E-2,1.4194691E-1,8.731392E-2,0E0,0E0,0E0,0E0,0E0,0E0,0E0,0E0,0E0],"parents":[2147483647,0,0,1,1,2,2,3,3,5,5,8,8,10,10,12,12,13,13,14,14,15,15,16,16,17,17],"right_children":[2,4,6,8,-1,10,-1,-1,12,-1,14,-1,16,18,20,22,24,26,-1,-1,-1,-1,-1,-1,-1,-1,-1],"split_conditions":[1E0,7.8E1,9E0,1E0,4.172321E-2,3E0,-1.1030918E-1,-1.3276121E-1,6.5E0,-1.9029494E-2,5.9E1,-1.2539196E-1,7.2E0,6.6E0,8.1E0,3.9E1,7.7E0,5E1,1.1975356E-1,9.079215E-4,4.6858437E-2,7.296685E-2,2.0895659E-3,-1.207342E-1,-3.5464983E-2,9.140452E-2,2.3166228E-2],"split_indices":[8,9,2,0,0,2,0,0,3,0,1,0,3,3,3,1,3,1,0,0,0,0,0,0,0,0,0],"split_type":[0,0,0,0,0,0,0,0,0,0,0,0,0,0,0,0,0,0,0,0,0,0,0,0,0,0,0],"sum_hessian":[4.093067E1,2.3123396E1,1.7807276E1,2.1063301E1,2.060095E0,1.5474106E1,2.333171E0,5.3665223E0,1.5696778E1,1.3754214E0,1.4098684E1,3.6266875E0,1.207009E1,1.0183438E1,3.9152458E0,3.6861942E0,8.383896E0,7.728042E0,2.4553967E0,1.3380171E0,2.5772288E0,1.9007821E0,1.785412E0,3.2889664E0,5.0949297E0,3.6129117E0,4.1151304E0],"tree_param":{"num_deleted":"0","num_feature":"11","num_nodes":"27","size_leaf_vector":"1"}},{"base_weights":[1.10902E-1,2.4864799E-1,-1.1415613E-1,3.4676784E-1,1.8886307E-1,-6.8225294E-2,-1.1195019E-1,1.6162606E-1,1.1683179E-1,3.1737757E-1,8.455706E-2,6.6362165E-2,-1.1201801E-1,9.6561395E-2,-1.6428428E-2,3.5759747E-2,3.6134425E-1,-7.721171E-2,1.5772794E-1,-1.90381E-1,-1.4885864E-2,1.3333465E-1,1.8499883E-1,2.4229355E-1,1.9445064E-2,-2.3311959E-3,-2.3268223E-1,1.2543431E-1,-1.2476506E-1,1.056842E-1,-2.3830006E-2,1.2447256E-2,9.114314E-2,8.792525E-2,-3.1871147E-2,-1.16574064E-1,-2.5741857E-2,-4.8288174E-2,8.0587E-2,-9.1957375E-2,2.8242834E-3],"categories":[],"categories_nodes":[],"categories_segments":[],"categories_sizes":[],"default_left":[0,0,0,0,0,0,0,0,0,0,0,0,0,0,0,0,0,0,0,0,0,0,0,0,0,0,0,0,0,0,0,0,0,0,0,0,0,0,0,0,0],"id":29,"left_children":[1,3,5,7,9,11,-1,13,-1,15,17,-1,19,-1,-1,-1,21,-1,23,25,27,-1,29,31,33,-1,35,37,39,-1,-1,-1,-1,-1,-1,-1,-1,-1,-1,-1,-1],"loss_changes":[1.7498326E0,1.3841915E-1,2.3350683E-1,3.1582594E-2,2.9214555E-1,2.7464318E-1,0E0,1.5461358E-1,0E0,4.6654463E-2,4.033332E-1,0E0,1.3254695E-1,0E0,0E0,0E0,3.407538E-2,0E0,1.4219669E-1,7.357973E-2,1.5482761E-1,0E0,2.1619783E-1,8.2612336E-2,2.3248196E-1,0E0,1.4730427E-1,2.2625649E-1,1.3857958E-1,0E0,0E0,0E0,0E0,0E0,0E0,0E0,0E0,0E0,0E0,0E0,0E0],"parents":[2147483647,0,0,1,1,2,2,3,3,4,4,5,5,7,7,9,9,10,10,12,12,16,16,18,18,19,19,20,20,22,22,23,23,24,24,26,26,27,27,28,28],"right_children":[2,4,6,8,10,12,-1,14,-1,16,18,-1,20,-1,-1,-1,22,-1,24,26,28,-1,30,32,34,-1,36,38,40,-1,-1,-1,-1,-1,-1,-1,-1,-1,-1,-1,-1],"split_conditions":[2E0,5E0,7.8E1,3.7E1,2E0,4.2E1,-1.1195019E-1,3.6E1,1.1683179E-1,6.1E0,7.2E0,6.6362165E-2,6.6E0,9.6561395E-2,-1.6428428E-2,3.5759747E-2,7.7E0,-7.721171E-2,7.8E0,6.1E0,4.8E1,1.3333465E-1,3.1E1,7.3E0,4.3E1,-2.3311959E-3,1E0,4.5E1,5.9E1,1.056842E-1,-2.3830006E-2,1.2447256E-2,9.114314E-2,8.792525E-2,-3.1871147E-2,-1.16574064E-1,-2.5741857E-2,-4.8288174E-2,8.0587E-2,-9.1957375E-2,2.8242834E-3],"split_indices":[7,6,9,1,2,1,0,1,0,3,3,0,3,0,0,0,3,0,3,3,1,0,1,3,1,0,0,1,1,0,0,0,0,0,0,0,0,0,0,0,0],"split_type":[0,0,0,0,0,0,0,0,0,0,0,0,0,0,0,0,0,0,0,0,0,0,0,0,0,0,0,0,0,0,0,0,0,0,0,0,0,0,0,0,0],"sum_hessian":[5.4529057E1,3.3760967E1,2.0768091E1,1.0964921E1,2.2796045E1,1.871308E1,2.0550113E0,2.9506037E0,8.014317E0,9.297691E0,1.3498355E1,1.9268715E0,1.678621E1,1.415145E0,1.5354588E0,2.3620322E0,6.935659E0,1.935641E0,1.1562714E1,8.759397E0,8.026812E0,3.6807415E0,3.2549171E0,6.708211E0,4.8545027E0,1.8700907E0,6.889306E0,3.4629362E0,4.563875E0,1.7902045E0,1.4647127E0,1.9658315E0,4.7423797E0,1.1086881E0,3.7458146E0,2.5437117E0,4.3455944E0,1.1128975E0,2.3500388E0,1.3927774E0,3.1710978E0],"tree_param":{"num_deleted":"0","num_feature":"11","num_nodes":"41","size_leaf_vector":"1"}},{"base_weights":[-4.149975E-2,8.999851E-2,-1.9038527E-1,-1.8050247E-1,1.4068489E-1,-1.3236114E-1,-1.2119413E-1,-8.7919496E-2,-1.1263601E-2,1.8364024E-1,-8.722914E-2,-3.1514424E-1,-8.570794E-3,1.110943E-1,1.3196158E-1,-1.7234981E-2,-1.2573586E-1,8.57542E-2,-1.8590577E-1,1.07052185E-1,8.2449906E-2,7.574589E-2,-2.1045852E-2,-8.843362E-2,-1.4704882E-2,-9.071524E-3,6.0445756E-2],"categories":[],"categories_nodes":[],"categories_segments":[],"categories_sizes":[],"default_left":[0,0,0,0,0,0,0,0,0,0,0,0,0,0,0,0,0,0,0,0,0,0,0,0,0,0,0],"id":30,"left_children":[1,3,5,7,9,11,-1,-1,-1,13,-1,15,17,-1,19,-1,-1,21,23,-1,25,-1,-1,-1,-1,-1,-1],"loss_changes":[8.793977E-1,3.553508E-1,2.0650363E-1,5.715753E-2,4.3943554E-1,4.041893E-1,0E0,0E0,0E0,1.3979727E-1,0E0,1.697272E-1,2.12477E-1,0E0,1.5841267E-1,0E0,0E0,2.348772E-1,5.1056445E-2,0E0,2.0899904E-1,0E0,0E0,0E0,0E0,0E0,0E0],"parents":[2147483647,0,0,1,1,2,2,3,3,4,4,5,5,9,9,11,11,12,12,14,14,17,17,18,18,20,20],"right_children":[2,4,6,8,10,12,-1,-1,-1,14,-1,16,18,-1,20,-1,-1,22,24,-1,26,-1,-1,-1,-1,-1,-1],"split_conditions":[5E1,6.3E0,7.9E0,3.3E1,8.4E0,3.9E1,-1.2119413E-1,-8.7919496E-2,-1.1263601E-2,3E0,-8.722914E-2,1E0,6E0,1.110943E-1,6.4E0,-1.7234981E-2,-1.2573586E-1,7.7E0,5E1,1.07052185E-1,1E0,7.574589E-2,-2.1045852E-2,-8.843362E-2,-1.4704882E-2,-9.071524E-3,6.0445756E-2],"split_indices":[5,3,3,1,3,1,0,0,0,2,0,2,6,0,3,0,0,3,1,0,8,0,0,0,0,0,0],"split_type":[0,0,0,0,0,0,0,0,0,0,0,0,0,0,0,0,0,0,0,0,0,0,0,0,0,0,0],"sum_hessian":[4.304204E1,2.3065613E1,1.9976429E1,3.2357943E0,1.9829817E1,1.6982685E1,2.9937437E0,1.2228886E0,2.0129056E0,1.8556665E1,1.2731516E0,6.2332163E0,1.0749469E1,2.686556E0,1.587011E1,2.2383013E0,3.9949148E0,7.354185E0,3.3952844E0,1.7435971E0,1.4126513E1,3.2543788E0,4.099806E0,1.2487241E0,2.1465602E0,7.6399436E0,6.4865694E0],"tree_param":{"num_deleted":"0","num_feature":"11","num_nodes":"27","size_leaf_vector":"1"}},{"base_weights":[-7.8878745E-2,-2.237404E-1,1.0690438E-1,-2.6561287E-1,3.7677437E-2,1.8917024E-1,-1.045803E-1,-1.271455E-1,-1.929079E-1,-1.8674936E-2,2.1723054E-1,-1.1931783E-1,-1.0957399E-1,3.1423533E-1,1.498592E-1,1.3658592E-1,-2.3324275E-1,2.1411156E-2,1.19692385E-1,-1.4363233E-3,2.274217E-1,5.961154E-2,5.45865E-3,-1.1472111E-1,-2.8860744E-2,2.0682367E-2,-2.801751E-2,1.0900572E-1,2.8370086E-2],"categories":[],"categories_nodes":[],"categories_segments":[],"categories_sizes":[],"default_left":[0,0,0,0,0,0,0,0,0,0,0,0,0,0,0,0,0,0,0,0,0,0,0,0,0,0,0,0,0],"id":31,"left_children":[1,3,5,7,-1,9,-1,-1,11,-1,13,-1,15,17,19,21,23,-1,-1,25,27,-1,-1,-1,-1,-1,-1,-1,-1],"loss_changes":[1.0522293E0,3.5212147E-1,7.1859354E-1,1.4576614E-1,0E0,1.22172594E-1,0E0,0E0,2.1906537E-1,0E0,4.490763E-2,0E0,4.068455E-1,7.1502924E-2,1.2024674E-1,3.1315625E-2,1.3835564E-1,0E0,0E0,3.528308E-2,8.77547E-2,0E0,0E0,0E0,0E0,0E0,0E0,0E0,0E0],"parents":[2147483647,0,0,1,1,2,2,3,3,5,5,8,8,10,10,12,12,13,13,14,14,15,15,16,16,19,19,20,20],"right_children":[2,4,6,8,-1,10,-1,-1,12,-1,14,-1,16,18,20,22,24,-1,-1,26,28,-1,-1,-1,-1,-1,-1,-1,-1],"split_conditions":[1E0,7.8E1,9E0,1E0,3.7677437E-2,3E0,-1.045803E-1,-1.271455E-1,6.5E0,-1.8674936E-2,5E1,-1.1931783E-1,7.2E0,3E1,5.1E1,3.9E1,7.7E0,2.1411156E-2,1.19692385E-1,6.1E0,5.9E1,5.961154E-2,5.45865E-3,-1.1472111E-1,-2.8860744E-2,2.0682367E-2,-2.801751E-2,1.0900572E-1,2.8370086E-2],"split_indices":[8,9,2,0,0,2,0,0,3,0,1,0,3,1,1,1,3,0,0,3,1,0,0,0,0,0,0,0,0],"split_type":[0,0,0,0,0,0,0,0,0,0,0,0,0,0,0,0,0,0,0,0,0,0,0,0,0,0,0,0,0],"sum_hessian":[3.7208904E1,2.079219E1,1.6416714E1,1.8780706E1,2.0114841E0,1.4400615E1,2.0160992E0,4.3927746E0,1.4387933E1,1.3235137E0,1.3077102E1,3.069943E0,1.1317989E1,3.8579679E0,9.219133E0,3.7497487E0,7.5682406E0,1.4744358E0,2.383532E0,3.4571004E0,5.762033E0,2.0144057E0,1.7353431E0,2.7665513E0,4.8016896E0,2.1000862E0,1.3570142E0,1.990494E0,3.771539E0],"tree_param":{"num_deleted":"0","num_feature":"11","num_nodes":"29","size_leaf_vector":"1"}},{"base_weights":[9.478837E-2,2.1510926E-1,-9.559818E-2,3.1289136E-1,1.5821068E-1,-5.2133378E-2,-1.0567341E-1,1.3632625E-1,3.5687447E-1,2.8051865E-1,6.490462E-2,5.7911053E-2,-8.999935E-2,9.019473E-2,-1.9753326E-2,1.2720077E-1,1.9223736E-1,2.7458133E-2,3.2708853E-1,-6.765781E-2,1.3083664E-1,-7.981631E-2,-5.0717767E-2,4.6594017E-3,9.371108E-2,1.2491085E-1,1.5193628E-1,2.0809801E-1,3.916047E-3,-2.0757721E-1,1.8323943E-2,9.833847E-2,-2.911241E-2,5.3467173E-3,8.162554E-2,4.6264837E-4,-1.0265723E-1,-2.230348E-2,9.716393E-2],"categories":[],"categories_nodes":[],"categories_segments":[],"categories_sizes":[],"default_left":[0,0,0,0,0,0,0,0,0,0,0,0,0,0,0,0,0,0,0,0,0,0,0,0,0,0,0,0,0,0,0,0,0,0,0,0,0,0,0],"id":32,"left_children":[1,3,5,7,9,11,-1,13,15,17,19,-1,21,-1,-1,-1,23,-1,25,-1,27,-1,29,-1,-1,-1,31,33,-1,35,37,-1,-1,-1,-1,-1,-1,-1,-1],"loss_changes":[1.1906328E0,1.2634158E-1,2.1000545E-1,3.369212E-2,2.3288828E-1,1.9079973E-1,0E0,1.4380074E-1,5.474448E-3,5.1215112E-2,2.9341584E-1,0E0,1.03131145E-1,0E0,0E0,0E0,8.2376465E-2,0E0,4.6344757E-2,0E0,1.0525669E-1,0E0,1.6650029E-1,0E0,0E0,0E0,2.0436846E-1,8.157188E-2,0E0,1.3206165E-1,3.4547204E-1,0E0,0E0,0E0,0E0,0E0,0E0,0E0,0E0],"parents":[2147483647,0,0,1,1,2,2,3,3,4,4,5,5,7,7,8,8,9,9,10,10,12,12,16,16,18,18,20,20,22,22,26,26,27,27,29,29,30,30],"right_children":[2,4,6,8,10,12,-1,14,16,18,20,-1,22,-1,-1,-1,24,-1,26,-1,28,-1,30,-1,-1,-1,32,34,-1,36,38,-1,-1,-1,-1,-1,-1,-1,-1],"split_conditions":[2E0,5E0,7.8E1,3.7E1,2E0,4.2E1,-1.0567341E-1,3.6E1,5.3E1,6.1E0,7.2E0,5.7911053E-2,4.4E1,9.019473E-2,-1.9753326E-2,1.2720077E-1,8.4E0,2.7458133E-2,7.7E0,-6.765781E-2,7.8E0,-7.981631E-2,6.4E0,4.6594017E-3,9.371108E-2,1.2491085E-1,3.1E1,7.3E0,3.916047E-3,6.1E0,1E0,9.833847E-2,-2.911241E-2,5.3467173E-3,8.162554E-2,4.6264837E-4,-1.0265723E-1,-2.230348E-2,9.716393E-2],"split_indices":[7,6,9,1,2,1,0,1,1,3,3,0,1,0,0,0,3,0,3,0,3,0,3,0,0,0,1,3,0,3,0,0,0,0,0,0,0,0,0],"split_type":[0,0,0,0,0,0,0,0,0,0,0,0,0,0,0,0,0,0,0,0,0,0,0,0,0,0,0,0,0,0,0,0,0,0,0,0,0,0,0],"sum_hessian":[5.0078026E1,3.0605833E1,1.9472193E1,9.603239E0,2.1002594E1,1.768094E1,1.7912529E0,2.7326894E0,6.870549E0,8.220508E0,1.2782087E1,1.8172061E0,1.5863734E1,1.2387428E0,1.4939466E0,3.7614884E0,3.1090608E0,2.2114186E0,6.0090885E0,1.917021E0,1.0865067E1,1.8407451E0,1.4022989E1,1.7152894E0,1.3937715E0,3.0680273E0,2.941061E0,6.09813E0,4.7669363E0,3.6725602E0,1.0350429E1,1.5381014E0,1.4029597E0,1.8563917E0,4.2417383E0,1.825393E0,1.8471674E0,8.522436E0,1.8279924E0],"tree_param":{"num_deleted":"0","num_feature":"11","num_nodes":"39","size_leaf_vector":"1"}},{"base_weights":[-3.3521492E-2,8.165032E-2,-1.6652349E-1,1.1102111E-1,-7.999485E-2,-1.09721E-1,-1.16115056E-1,-1.5621223E-1,1.6185234E-1,-2.8732067E-1,-1.0886508E-4,-8.203894E-2,-5.846384E-3,9.98858E-2,1.1382861E-1,-8.018128E-3,-1.20685555E-1,-8.0429725E-2,5.257119E-2,1.7938328E-1,-9.688438E-3,1.2817062E-1,-1.6799808E-2,3.1079408E-2,9.239716E-2,2.8482782E-2,-3.7282735E-2,6.696933E-2,-1.3443906E-2],"categories":[],"categories_nodes":[],"categories_segments":[],"categories_sizes":[],"default_left":[0,0,0,0,0,0,0,0,0,0,0,0,0,0,0,0,0,0,0,0,0,0,0,0,0,0,0,0,0],"id":33,"left_children":[1,3,5,7,-1,9,-1,11,13,15,17,-1,-1,-1,19,-1,-1,-1,21,23,25,27,-1,-1,-1,-1,-1,-1,-1],"loss_changes":[6.470749E-1,2.6319245E-1,2.0206022E-1,3.2092544E-1,0E0,3.2931787E-1,0E0,5.8588356E-2,1.1639041E-1,1.826737E-1,1.7591065E-1,0E0,0E0,0E0,1.3276085E-1,0E0,0E0,0E0,9.266246E-2,7.162309E-2,9.043937E-2,1.15965545E-1,0E0,0E0,0E0,0E0,0E0,0E0,0E0],"parents":[2147483647,0,0,1,1,2,2,3,3,5,5,7,7,8,8,9,9,10,10,14,14,18,18,19,19,20,20,21,21],"right_children":[2,4,6,8,-1,10,-1,12,14,16,18,-1,-1,-1,20,-1,-1,-1,22,24,26,28,-1,-1,-1,-1,-1,-1,-1],"split_conditions":[5E1,8.4E0,7.9E0,6.3E0,-7.999485E-2,3.9E1,-1.16115056E-1,3.3E1,3E0,1E0,6.1E0,-8.203894E-2,-5.846384E-3,9.98858E-2,6.6E0,-8.018128E-3,-1.20685555E-1,-8.0429725E-2,7.7E0,1E0,4.5E1,6E0,-1.6799808E-2,3.1079408E-2,9.239716E-2,2.8482782E-2,-3.7282735E-2,6.696933E-2,-1.3443906E-2],"split_indices":[5,3,3,3,0,1,0,1,2,2,3,0,0,0,3,0,0,0,3,8,1,6,0,0,0,0,0,0,0],"split_type":[0,0,0,0,0,0,0,0,0,0,0,0,0,0,0,0,0,0,0,0,0,0,0,0,0,0,0,0,0],"sum_hessian":[4.035494E1,2.183405E1,1.8520891E1,2.0764322E1,1.0697275E0,1.5918262E1,2.6026287E0,2.987114E0,1.7777208E1,5.4563427E0,1.0461919E1,1.0696799E0,1.9174341E0,2.5957851E0,1.5181422E1,2.0475585E0,3.4087842E0,1.0469179E0,9.415001E0,9.622266E0,5.559157E0,5.443839E0,3.9711618E0,7.190569E0,2.4316964E0,2.995432E0,2.563725E0,3.3257499E0,2.1180894E0],"tree_param":{"num_deleted":"0","num_feature":"11","num_nodes":"29","size_leaf_vector":"1"}},{"base_weights":[-7.227009E-2,-2.0046842E-1,9.038069E-2,-2.4064605E-1,3.3096444E-2,1.6352443E-1,-9.8749764E-2,-1.21886976E-1,-1.7019887E-1,1.1406368E-1,1.1076892E-1,-1.1321432E-1,-9.245916E-2,-6.185204E-2,1.8297921E-1,1.14102796E-1,-2.0764735E-1,1.0051205E-1,1.2404609E-1,6.286154E-2,1.0328006E-2,6.3714697E-3,-8.3520986E-2,-2.8999771E-3,5.918013E-2],"categories":[],"categories_nodes":[],"categories_segments":[],"categories_sizes":[],"default_left":[0,0,0,0,0,0,0,0,0,0,0,0,0,0,0,0,0,0,0,0,0,0,0,0,0],"id":34,"left_children":[1,3,5,7,-1,9,-1,-1,11,13,-1,-1,15,-1,17,19,21,-1,23,-1,-1,-1,-1,-1,-1],"loss_changes":[7.529536E-1,2.7651697E-1,5.51654E-1,1.4137626E-1,0E0,1.05232656E-1,0E0,0E0,1.966976E-1,3.2732227E-1,0E0,0E0,3.0398417E-1,0E0,5.9955806E-2,2.9762149E-2,1.3413566E-1,0E0,9.7384214E-2,0E0,0E0,0E0,0E0,0E0,0E0],"parents":[2147483647,0,0,1,1,2,2,3,3,5,5,8,8,9,9,12,12,14,14,15,15,16,16,18,18],"right_children":[2,4,6,8,-1,10,-1,-1,12,14,-1,-1,16,-1,18,20,22,-1,24,-1,-1,-1,-1,-1,-1],"split_conditions":[1E0,7.8E1,9E0,1E0,3.3096444E-2,8.4E1,-9.8749764E-2,-1.21886976E-1,6.5E0,4.1E3,1.1076892E-1,-1.1321432E-1,7.2E0,-6.185204E-2,5E1,4E0,3.2E1,1.0051205E-1,5.1E1,6.286154E-2,1.0328006E-2,6.3714697E-3,-8.3520986E-2,-2.8999771E-3,5.918013E-2],"split_indices":[8,9,2,0,0,9,0,0,3,10,0,0,3,0,1,2,1,0,1,0,0,0,0,0,0],"split_type":[0,0,0,0,0,0,0,0,0,0,0,0,0,0,0,0,0,0,0,0,0,0,0,0,0],"sum_hessian":[3.4241253E1,1.901862E1,1.5222632E1,1.7041288E1,1.9773319E0,1.3482354E1,1.7402784E0,3.662435E0,1.3378854E1,1.2122148E1,1.3602064E0,2.5987012E0,1.0780152E1,1.7940166E0,1.0328131E1,3.8627229E0,6.9174294E0,1.5761681E0,8.751963E0,1.0159477E0,2.8467753E0,1.7987052E0,5.118724E0,3.4039016E0,5.3480616E0],"tree_param":{"num_deleted":"0","num_feature":"11","num_nodes":"25","size_leaf_vector":"1"}},{"base_weights":[8.259558E-2,1.851293E-1,-7.571762E-2,2.82465E-1,1.3132448E-1,2.1160102E-2,-1.7884512E-1,1.0323572E-1,3.309426E-1,2.4585357E-1,4.9791925E-2,1.0785052E-1,-8.00415E-2,-1.1714451E-1,-4.3392915E-2,8.310273E-2,-2.6367307E-2,1.20940596E-1,1.6805035E-1,2.054017E-2,2.9427153E-1,-6.0107663E-2,1.0956954E-1,-8.463131E-2,-1.5567545E-2,-1.8163443E-1,4.1133393E-2,4.729462E-3,8.898561E-2,1.16807975E-1,1.23257875E-1,1.8574516E-1,4.2143984E-6,4.9320698E-2,-1.2489123E-1,4.193917E-3,-9.621988E-2,9.17421E-2,-3.2883245E-2,2.3726111E-2,9.989421E-2,-9.810549E-2,9.801545E-3],"categories":[],"categories_nodes":[],"categories_segments":[],"categories_sizes":[],"default_left":[0,0,0,0,0,0,0,0,0,0,0,0,0,0,0,0,0,0,0,0,0,0,0,0,0,0,0,0,0,0,0,0,0,0,0,0,0,0,0,0,0,0,0],"id":35,"left_children":[1,3,5,7,9,11,13,15,17,19,21,-1,23,-1,25,-1,-1,-1,27,-1,29,-1,31,-1,33,35,-1,-1,-1,-1,37,39,-1,-1,41,-1,-1,-1,-1,-1,-1,-1,-1],"loss_changes":[7.869997E-1,1.1578524E-1,1.9788513E-1,4.857707E-2,1.807577E-1,4.0240157E-1,2.558553E-1,1.3995293E-1,1.5067637E-2,5.1490843E-2,2.2124375E-1,0E0,1.1568949E-1,0E0,1.9776833E-1,0E0,0E0,0E0,7.1241334E-2,0E0,5.3631127E-2,0E0,9.516361E-2,0E0,1.7883904E-1,1.2293254E-1,0E0,0E0,0E0,0E0,1.9065015E-1,7.9294756E-2,0E0,0E0,1.8819645E-1,0E0,0E0,0E0,0E0,0E0,0E0,0E0,0E0],"parents":[2147483647,0,0,1,1,2,2,3,3,4,4,5,5,6,6,7,7,8,8,9,9,10,10,12,12,14,14,18,18,20,20,22,22,24,24,25,25,30,30,31,31,34,34],"right_children":[2,4,6,8,10,12,14,16,18,20,22,-1,24,-1,26,-1,-1,-1,28,-1,30,-1,32,-1,34,36,-1,-1,-1,-1,38,40,-1,-1,42,-1,-1,-1,-1,-1,-1,-1,-1],"split_conditions":[2E0,5E0,7E0,3.7E1,2E0,1E0,4.4E1,3.6E1,5.3E1,6.1E0,7.2E0,1.0785052E-1,4.5E1,-1.1714451E-1,6.4E0,8.310273E-2,-2.6367307E-2,1.20940596E-1,5.4E1,2.054017E-2,7.7E0,-6.0107663E-2,7.8E0,-8.463131E-2,6.7E0,6.1E0,4.1133393E-2,4.729462E-3,8.898561E-2,1.16807975E-1,3.1E1,7.7E0,4.2143984E-6,4.9320698E-2,5.9E1,4.193917E-3,-9.621988E-2,9.17421E-2,-3.2883245E-2,2.3726111E-2,9.989421E-2,-9.810549E-2,9.801545E-3],"split_indices":[7,6,6,1,2,8,1,1,1,3,3,0,1,0,3,0,0,0,1,0,3,0,3,0,3,3,0,0,0,0,1,3,0,0,1,0,0,0,0,0,0,0,0],"split_type":[0,0,0,0,0,0,0,0,0,0,0,0,0,0,0,0,0,0,0,0,0,0,0,0,0,0,0,0,0,0,0,0,0,0,0,0,0,0,0,0,0,0,0],"sum_hessian":[4.6619587E1,2.8191553E1,1.8428032E1,8.523067E0,1.9668488E1,9.911762E0,8.51627E0,2.4807818E0,6.0422854E0,7.3410645E0,1.2327422E1,1.6944549E0,8.217308E0,2.588727E0,5.9275427E0,1.0640209E0,1.4167609E0,3.1648068E0,2.8774784E0,2.0917432E0,5.249321E0,1.9240661E0,1.0403357E1,1.171215E0,7.0460925E0,3.353194E0,2.5743487E0,1.831151E0,1.0463274E0,2.5530035E0,2.6963177E0,5.726317E0,4.6770396E0,2.4723198E0,4.573773E0,1.7673159E0,1.585878E0,1.3358831E0,1.3604345E0,4.2121563E0,1.5141604E0,1.5324367E0,3.0413363E0],"tree_param":{"num_deleted":"0","num_feature":"11","num_nodes":"43","size_leaf_vector":"1"}},{"base_weights":[-2.859646E-2,6.979116E-2,-1.4509323E-1,-3.966246E-2,1.05784886E-1,-9.149818E-2,-1.09893024E-1,9.215963E-2,7.3928975E-2,-2.6139307E-1,5.3903465E-3,1.2634449E-2,1.636882E-1,-2.9185164E-4,-1.1595081E-1,7.8736775E-2,-1.4787145E-1,1.0673389E-1,-5.476738E-2,8.787902E-2,5.9946375E-3,1.9841784E-1,-1.3427821E-2,-7.97963E-2,-5.144058E-3,-5.6246524E-3,9.221284E-2,2.5366317E-2,-3.6746427E-2,1.3332464E-2,8.2056865E-2],"categories":[],"categories_nodes":[],"categories_segments":[],"categories_sizes":[],"default_left":[0,0,0,0,0,0,0,0,0,0,0,0,0,0,0,0,0,0,0,0,0,0,0,0,0,0,0,0,0,0,0],"id":36,"left_children":[1,3,5,-1,7,9,-1,-1,11,13,15,17,19,-1,-1,21,23,25,27,-1,-1,29,-1,-1,-1,-1,-1,-1,-1,-1,-1],"loss_changes":[4.5996508E-1,1.7359427E-1,1.8338376E-1,0E0,1.0040203E-1,2.6576185E-1,0E0,0E0,9.632712E-2,1.9030711E-1,1.3762201E-1,8.012157E-2,1.2737821E-1,0E0,0E0,1.3055275E-1,5.6812853E-2,1.3735381E-1,8.097093E-2,0E0,0E0,3.831917E-2,0E0,0E0,0E0,0E0,0E0,0E0,0E0,0E0,0E0],"parents":[2147483647,0,0,1,1,2,2,4,4,5,5,8,8,9,9,10,10,11,11,12,12,15,15,16,16,17,17,18,18,21,21],"right_children":[2,4,6,-1,8,10,-1,-1,12,14,16,18,20,-1,-1,22,24,26,28,-1,-1,30,-1,-1,-1,-1,-1,-1,-1,-1,-1],"split_conditions":[5E1,6.3E0,7.9E0,-3.966246E-2,6.4E0,3.9E1,-1.09893024E-1,9.215963E-2,1E0,1E0,3E0,6E0,4.5E1,-2.9185164E-4,-1.1595081E-1,7.7E0,5E1,2E0,6.5E0,8.787902E-2,5.9946375E-3,7.3E0,-1.3427821E-2,-7.97963E-2,-5.144058E-3,-5.6246524E-3,9.221284E-2,2.5366317E-2,-3.6746427E-2,1.3332464E-2,8.2056865E-2],"split_indices":[5,3,3,0,3,1,0,0,8,2,7,2,1,0,0,3,1,7,3,0,0,3,0,0,0,0,0,0,0,0,0],"split_type":[0,0,0,0,0,0,0,0,0,0,0,0,0,0,0,0,0,0,0,0,0,0,0,0,0,0,0,0,0,0,0],"sum_hessian":[3.8246655E1,2.0952276E1,1.7294378E1,2.7645173E0,1.818776E1,1.5059475E1,2.2349029E0,1.3034039E0,1.6884356E1,4.852573E0,1.02069025E1,1.0710892E1,6.1734643E0,1.9017621E0,2.9508107E0,7.2320995E0,2.9748027E0,4.226602E0,6.484289E0,2.7035942E0,3.46987E0,3.3646855E0,3.867414E0,1.0191929E0,1.9556099E0,3.1580787E0,1.0685235E0,2.039615E0,4.4446745E0,1.624975E0,1.7397107E0],"tree_param":{"num_deleted":"0","num_feature":"11","num_nodes":"31","size_leaf_vector":"1"}},{"base_weights":[-6.44327E-2,-1.8251379E-1,6.980909E-2,-1.3214903E-1,-5.0471816E-2,-1.1705475E-1,1.6894092E-1,1.6886897E-1,-2.1113756E-1,7.679221E-3,-1.8095173E-1,1.0804499E-1,9.813593E-2,6.8326904E-3,2.3602216E-1,-7.569518E-2,-1.0966625E-1,-8.613943E-2,-1.43590085E-2,3.7008893E-2,8.765809E-2,1.7041091E-3,1.0113583E-1,6.0055885E-2,-8.690316E-2,9.6038625E-2,-1.7698651E-2,-1.3805965E-2,5.7484202E-2,-6.152126E-3,8.609274E-2],"categories":[],"categories_nodes":[],"categories_segments":[],"categories_sizes":[],"default_left":[0,0,0,0,0,0,0,0,0,0,0,0,0,0,0,0,0,0,0,0,0,0,0,0,0,0,0,0,0,0,0],"id":37,"left_children":[1,3,5,-1,7,9,11,13,15,-1,17,-1,19,-1,21,23,-1,-1,-1,25,-1,-1,-1,27,-1,29,-1,-1,-1,-1,-1],"loss_changes":[5.3140587E-1,5.801891E-1,3.1682318E-1,0E0,4.8768505E-1,6.0680345E-2,1.1204645E-1,5.3280607E-2,1.3647008E-1,0E0,4.802066E-2,0E0,9.973328E-2,0E0,9.098226E-2,1.754804E-1,0E0,0E0,0E0,5.2317373E-2,0E0,0E0,0E0,6.684339E-2,0E0,1.2778991E-1,0E0,0E0,0E0,0E0,0E0],"parents":[2147483647,0,0,1,1,2,2,4,4,5,5,6,6,7,7,8,8,10,10,12,12,14,14,15,15,19,19,23,23,25,25],"right_children":[2,4,6,-1,8,10,12,14,16,-1,18,-1,20,-1,22,24,-1,-1,-1,26,-1,-1,-1,28,-1,30,-1,-1,-1,-1,-1],"split_conditions":[7.5E1,3E0,1E0,-1.3214903E-1,5.5E3,3.2E1,5E1,2E0,4.4E1,7.679221E-3,7.8E0,1.0804499E-1,8.2E0,6.8326904E-3,7.8E1,7.2E0,-1.0966625E-1,-8.613943E-2,-1.43590085E-2,5.9E1,8.765809E-2,1.7041091E-3,1.0113583E-1,8E0,-8.690316E-2,5.1E1,-1.7698651E-2,-1.3805965E-2,5.7484202E-2,-6.152126E-3,8.609274E-2],"split_indices":[5,2,8,0,10,1,1,7,1,0,3,0,3,0,9,3,0,0,0,1,0,0,0,4,0,1,0,0,0,0,0],"split_type":[0,0,0,0,0,0,0,0,0,0,0,0,0,0,0,0,0,0,0,0,0,0,0,0,0,0,0,0,0,0,0],"sum_hessian":[3.1720407E1,1.6684704E1,1.5035704E1,4.8577065E0,1.1826997E1,5.149008E0,9.886696E0,4.9788356E0,6.848161E0,1.7782965E0,3.3707113E0,1.5674062E0,8.31929E0,1.9895916E0,2.989244E0,4.442096E0,2.4060647E0,1.2310853E0,2.139626E0,7.2319717E0,1.0873182E0,1.2339582E0,1.7552857E0,3.1579938E0,1.2841027E0,4.4781547E0,2.7538168E0,2.1082766E0,1.0497172E0,3.335068E0,1.1430869E0],"tree_param":{"num_deleted":"0","num_feature":"11","num_nodes":"31","size_leaf_vector":"1"}},{"base_weights":[7.213534E-2,1.0033662E-1,-1.07731625E-1,2.0392805E-1,6.3486686E-3,1.592526E-1,1.1378551E-1,-3.1307835E-2,9.662179E-2,1.9835304E-1,-2.9318372E-4,-1.2324246E-1,2.2688719E-2,3.0153725E-1,1.0893892E-1,-3.13359E-2,2.3918452E-2,-8.2482964E-2,-6.226842E-2,1.7533767E-1,-6.307831E-2,1.487778E-2,1.23473845E-1,-5.1878676E-2,5.949892E-2,-5.9621267E-2,3.7643876E-2,1.5002547E-2,9.6163824E-2,-4.087911E-2,1.0195992E-2],"categories":[],"categories_nodes":[],"categories_segments":[],"categories_sizes":[],"default_left":[0,0,0,0,0,0,0,0,0,0,0,0,0,0,0,0,0,0,0,0,0,0,0,0,0,0,0,0,0,0,0],"id":38,"left_children":[1,3,-1,5,7,9,-1,11,-1,13,15,17,19,21,23,-1,-1,-1,25,27,29,-1,-1,-1,-1,-1,-1,-1,-1,-1,-1],"loss_changes":[5.8068585E-1,4.1559252E-1,0E0,9.891391E-2,2.8925672E-1,1.11916095E-1,0E0,1.11465104E-1,0E0,1.0003364E-1,4.606817E-2,5.9240073E-2,2.0266995E-1,1.4928895E-1,2.6816848E-1,0E0,0E0,0E0,2.089358E-1,8.459976E-2,7.642093E-2,0E0,0E0,0E0,0E0,0E0,0E0,0E0,0E0,0E0,0E0],"parents":[2147483647,0,0,1,1,3,3,4,4,5,5,7,7,9,9,10,10,11,11,12,12,13,13,14,14,18,18,19,19,20,20],"right_children":[2,4,-1,6,8,10,-1,12,-1,14,16,18,20,22,24,-1,-1,-1,26,28,30,-1,-1,-1,-1,-1,-1,-1,-1,-1,-1],"split_conditions":[7.8E1,4.3E1,-1.07731625E-1,7.8E0,8.4E0,7.6E0,1.1378551E-1,6.6E0,9.662179E-2,3.6E1,3.2E1,4.4E1,7.8E0,6.1E0,3.7E1,-3.13359E-2,2.3918452E-2,-8.2482964E-2,1E0,6.9E0,5.4E1,1.487778E-2,1.23473845E-1,-5.1878676E-2,5.949892E-2,-5.9621267E-2,3.7643876E-2,1.5002547E-2,9.6163824E-2,-4.087911E-2,1.0195992E-2],"split_indices":[9,1,0,3,3,3,0,3,0,1,1,1,3,3,1,0,0,0,0,3,1,0,0,0,0,0,0,0,0,0,0],"split_type":[0,0,0,0,0,0,0,0,0,0,0,0,0,0,0,0,0,0,0,0,0,0,0,0,0,0,0,0,0,0,0],"sum_hessian":[4.3784973E1,4.181761E1,1.9673613E0,1.9336084E1,2.2481527E1,1.6930807E1,2.4052765E0,2.0890722E1,1.5908056E0,1.3402881E1,3.5279274E0,7.255345E0,1.3635377E1,5.120936E0,8.281944E0,1.4001317E0,2.1277957E0,1.0740274E0,6.1813173E0,4.5294576E0,9.10592E0,1.9977353E0,3.1232007E0,1.7690945E0,6.51285E0,3.5455883E0,2.6357293E0,3.1527307E0,1.3767269E0,4.9613223E0,4.144597E0],"tree_param":{"num_deleted":"0","num_feature":"11","num_nodes":"31","size_leaf_vector":"1"}},{"base_weights":[-2.2246953E-2,6.478135E-2,-1.2752883E-1,-3.1922814E-2,9.408375E-2,-7.699789E-2,-1.0415633E-1,8.7698966E-2,6.368716E-2,-2.3797773E-1,9.521905E-3,1.2268968E-2,1.3949072E-1,2.6932606E-3,-1.108327E-1,7.6753505E-2,-4.011276E-2,9.8217815E-2,-4.7965836E-2,7.8891076E-2,2.6285185E-3,5.7828818E-2,-1.2389992E-2,6.698224E-2,-1.5474015E-2,1.0478137E-2,-4.8450585E-2],"categories":[],"categories_nodes":[],"categories_segments":[],"categories_sizes":[],"default_left":[0,0,0,0,0,0,0,0,0,0,0,0,0,0,0,0,0,0,0,0,0,0,0,0,0,0,0],"id":39,"left_children":[1,3,5,-1,7,9,-1,-1,11,13,15,17,19,-1,-1,21,-1,23,25,-1,-1,-1,-1,-1,-1,-1,-1],"loss_changes":[3.5034776E-1,1.1586912E-1,1.6454282E-1,0E0,9.3160525E-2,2.1529126E-1,0E0,0E0,6.59595E-2,1.7815071E-1,1.1531881E-1,6.394387E-2,1.0940996E-1,0E0,0E0,1.18343875E-1,0E0,1.05978206E-1,7.527337E-2,0E0,0E0,0E0,0E0,0E0,0E0,0E0,0E0],"parents":[2147483647,0,0,1,1,2,2,4,4,5,5,8,8,9,9,10,10,11,11,12,12,15,15,17,17,18,18],"right_children":[2,4,6,-1,8,10,-1,-1,12,14,16,18,20,-1,-1,22,-1,24,26,-1,-1,-1,-1,-1,-1,-1,-1],"split_conditions":[5E1,6.3E0,7.9E0,-3.1922814E-2,6.4E0,3.9E1,-1.0415633E-1,8.7698966E-2,1E0,1E0,6E0,6E0,4.5E1,2.6932606E-3,-1.108327E-1,7.7E0,-4.011276E-2,6.9E0,4.4E1,7.8891076E-2,2.6285185E-3,5.7828818E-2,-1.2389992E-2,6.698224E-2,-1.5474015E-2,1.0478137E-2,-4.8450585E-2],"split_indices":[5,3,3,0,3,1,0,0,8,2,6,2,1,0,0,3,0,3,1,0,0,0,0,0,0,0,0],"split_type":[0,0,0,0,0,0,0,0,0,0,0,0,0,0,0,0,0,0,0,0,0,0,0,0,0,0,0],"sum_hessian":[3.6335457E1,2.010276E1,1.6232697E1,2.5534644E0,1.7549297E1,1.4294811E1,1.9378841E0,1.187466E0,1.636183E1,4.3851633E0,9.909648E0,1.0441277E1,5.9205537E0,1.847104E0,2.5380592E0,7.0599084E0,2.8497398E0,4.042485E0,6.398792E0,2.5244896E0,3.396064E0,3.2415996E0,3.818309E0,1.9358609E0,2.1066244E0,4.0986953E0,2.3000963E0],"tree_param":{"num_deleted":"0","num_feature":"11","num_nodes":"27","size_leaf_vector":"1"}},{"base_weights":[-5.6815762E-2,-1.6476883E-1,6.0749095E-2,-1.2664023E-1,-4.381398E-2,-1.0269923E-1,1.4811781E-1,5.3916693E-2,-1.0446525E-1,1.0180991E-2,-1.6724709E-1,9.961229E-2,8.3696775E-2,-5.0810456E-2,1.9208425E-1,-8.08474E-2,-1.3581763E-2,-3.1021422E-2,1.5389502E-1,4.773451E-2,-8.219006E-2,8.23124E-3,9.298085E-2,1.30270375E-2,-3.4202546E-2,9.191584E-2,3.7619457E-2,-9.002373E-3,5.608668E-2,-1.0738109E-2,2.3614388E-2],"categories":[],"categories_nodes":[],"categories_segments":[],"categories_sizes":[],"default_left":[0,0,0,0,0,0,0,0,0,0,0,0,0,0,0,0,0,0,0,0,0,0,0,0,0,0,0,0,0,0,0],"id":40,"left_children":[1,3,5,-1,7,9,11,13,-1,-1,15,-1,17,19,21,-1,-1,23,25,27,-1,-1,-1,-1,-1,-1,29,-1,-1,-1,-1],"loss_changes":[3.9801323E-1,4.860172E-1,2.3462938E-1,0E0,3.7996665E-1,5.808834E-2,9.569846E-2,1.5527438E-1,0E0,0E0,4.023797E-2,0E0,7.770037E-2,1.5626608E-1,7.9689264E-2,0E0,0E0,3.133059E-2,9.1061324E-2,6.3713424E-2,0E0,0E0,0E0,0E0,0E0,0E0,1.6160334E-2,0E0,0E0,0E0,0E0],"parents":[2147483647,0,0,1,1,2,2,4,4,5,5,6,6,7,7,10,10,12,12,13,13,14,14,17,17,18,18,19,19,26,26],"right_children":[2,4,6,-1,8,10,12,14,-1,-1,16,-1,18,20,22,-1,-1,24,26,28,-1,-1,-1,-1,-1,-1,30,-1,-1,-1,-1],"split_conditions":[7.5E1,3E0,1E0,-1.2664023E-1,4.4E1,3.2E1,5E1,7.8E1,-1.0446525E-1,1.0180991E-2,7.8E0,9.961229E-2,5.1E1,7.2E0,2E0,-8.08474E-2,-1.3581763E-2,6.1E0,5.9E1,8E0,-8.219006E-2,8.23124E-3,9.298085E-2,1.30270375E-2,-3.4202546E-2,9.191584E-2,8.1E0,-9.002373E-3,5.608668E-2,-1.0738109E-2,2.3614388E-2],"split_indices":[5,2,8,0,1,1,1,9,0,0,3,0,1,3,7,0,0,3,1,4,0,0,0,0,0,0,3,0,0,0,0],"split_type":[0,0,0,0,0,0,0,0,0,0,0,0,0,0,0,0,0,0,0,0,0,0,0,0,0,0,0,0,0,0,0],"sum_hessian":[2.9571962E1,1.520686E1,1.4365102E1,4.065775E0,1.1141085E1,4.942766E0,9.422336E0,9.05636E0,2.0847242E0,1.7379944E0,3.2047718E0,1.3665581E0,8.055778E0,5.5112453E0,3.545115E0,1.0854748E0,2.1192968E0,3.2700083E0,4.78577E0,4.368311E0,1.1429346E0,1.9932408E0,1.5518743E0,1.9750249E0,1.2949834E0,1.3631061E0,3.4226637E0,3.3064277E0,1.0618831E0,1.2746357E0,2.148028E0],"tree_param":{"num_deleted":"0","num_feature":"11","num_nodes":"31","size_leaf_vector":"1"}},{"base_weights":[6.0542114E-2,8.5543126E-2,-1.0137733E-1,1.7556785E-1,6.9854716E-3,1.3097662E-1,1.0819091E-1,-2.6225569E-2,9.069736E-2,1.6695762E-1,-5.4557836E-3,-1.0759221E-1,2.038956E-2,2.6991612E-1,8.342177E-2,-3.164952E-2,2.2226833E-2,-8.010537E-2,-4.5688547E-2,1.6679418E-1,-5.88204E-2,7.783098E-3,1.16760544E-1,-5.1722854E-2,5.1415205E-2,-5.3132854E-2,3.6517594E-2,1.6404234E-2,8.988516E-2,-3.7466455E-2,9.306304E-3],"categories":[],"categories_nodes":[],"categories_segments":[],"categories_sizes":[],"default_left":[0,0,0,0,0,0,0,0,0,0,0,0,0,0,0,0,0,0,0,0,0,0,0,0,0,0,0,0,0,0,0],"id":41,"left_children":[1,3,-1,5,7,9,-1,11,-1,13,15,17,19,21,23,-1,-1,-1,25,27,29,-1,-1,-1,-1,-1,-1,-1,-1,-1,-1],"loss_changes":[4.5139512E-1,2.8663665E-1,0E0,1.0895175E-1,2.3134422E-1,8.3488226E-2,0E0,8.3344854E-2,0E0,9.224105E-2,4.3458875E-2,6.628121E-2,1.7730448E-1,1.5081853E-1,2.278834E-1,0E0,0E0,0E0,1.7412937E-1,6.3009486E-2,6.389338E-2,0E0,0E0,0E0,0E0,0E0,0E0,0E0,0E0,0E0,0E0],"parents":[2147483647,0,0,1,1,3,3,4,4,5,5,7,7,9,9,10,10,11,11,12,12,13,13,14,14,18,18,19,19,20,20],"right_children":[2,4,-1,6,8,10,-1,12,-1,14,16,18,20,22,24,-1,-1,-1,26,28,30,-1,-1,-1,-1,-1,-1,-1,-1,-1,-1],"split_conditions":[7.8E1,4.3E1,-1.0137733E-1,7.8E0,8.4E0,7.6E0,1.0819091E-1,6.6E0,9.069736E-2,3.6E1,3.2E1,4.4E1,7.8E0,6.1E0,3.7E1,-3.164952E-2,2.2226833E-2,-8.010537E-2,1E0,6.9E0,5.4E1,7.783098E-3,1.16760544E-1,-5.1722854E-2,5.1415205E-2,-5.3132854E-2,3.6517594E-2,1.6404234E-2,8.988516E-2,-3.7466455E-2,9.306304E-3],"split_indices":[9,1,0,3,3,3,0,3,0,1,1,1,3,3,1,0,0,0,0,3,1,0,0,0,0,0,0,0,0,0,0],"split_type":[0,0,0,0,0,0,0,0,0,0,0,0,0,0,0,0,0,0,0,0,0,0,0,0,0,0,0,0,0,0,0],"sum_hessian":[4.1409676E1,3.9703854E1,1.7058225E0,1.792614E1,2.1777712E1,1.5821707E1,2.1044335E0,2.0395435E1,1.3822762E0,1.2342823E1,3.4788835E0,6.952231E0,1.3443205E1,4.5292954E0,7.813528E0,1.3963941E0,2.0824893E0,1.0177336E0,5.9344974E0,4.3315086E0,9.111696E0,1.8871137E0,2.6421819E0,1.7535183E0,6.0600095E0,3.2921915E0,2.642306E0,3.1143913E0,1.2171173E0,5.0257516E0,4.0859447E0],"tree_param":{"num_deleted":"0","num_feature":"11","num_nodes":"31","size_leaf_vector":"1"}},{"base_weights":[-1.7697437E-2,5.8978073E-2,-1.1234717E-1,-2.538443E-2,8.265441E-2,-6.5278664E-2,-9.848185E-2,8.370716E-2,5.3612746E-2,-2.1694021E-1,1.2019701E-2,9.690574E-3,1.1922935E-1,4.648498E-3,-1.05917506E-1,6.99658E-2,-3.495912E-2,8.7468095E-2,-4.3161392E-2,2.3625235E-1,2.3603368E-4,5.297641E-2,-1.1610834E-2,5.8274485E-2,-1.247552E-2,2.9287709E-2,-3.517744E-2,2.2455271E-2,8.650963E-2],"categories":[],"categories_nodes":[],"categories_segments":[],"categories_sizes":[],"default_left":[0,0,0,0,0,0,0,0,0,0,0,0,0,0,0,0,0,0,0,0,0,0,0,0,0,0,0,0,0],"id":42,"left_children":[1,3,5,-1,7,9,-1,-1,11,13,15,17,19,-1,-1,21,-1,23,25,27,-1,-1,-1,-1,-1,-1,-1,-1,-1],"loss_changes":[2.6677775E-1,7.6551214E-2,1.4511934E-1,0E0,8.80889E-2,1.749691E-1,0E0,0E0,4.7779184E-2,1.6417627E-1,8.775603E-2,5.005954E-2,9.295344E-2,0E0,0E0,9.942077E-2,0E0,7.5407565E-2,8.836724E-2,6.81825E-3,0E0,0E0,0E0,0E0,0E0,0E0,0E0,0E0,0E0],"parents":[2147483647,0,0,1,1,2,2,4,4,5,5,8,8,9,9,10,10,11,11,12,12,15,15,17,17,18,18,19,19],"right_children":[2,4,6,-1,8,10,-1,-1,12,14,16,18,20,-1,-1,22,-1,24,26,28,-1,-1,-1,-1,-1,-1,-1,-1,-1],"split_conditions":[5E1,6.3E0,7.9E0,-2.538443E-2,6.4E0,3.9E1,-9.848185E-2,8.370716E-2,1E0,1E0,6E0,6E0,4.5E1,4.648498E-3,-1.05917506E-1,7.7E0,-3.495912E-2,6.9E0,6.5E0,4E1,2.3603368E-4,5.297641E-2,-1.1610834E-2,5.8274485E-2,-1.247552E-2,2.9287709E-2,-3.517744E-2,2.2455271E-2,8.650963E-2],"split_indices":[5,3,3,0,3,1,0,0,8,2,6,2,1,0,0,3,0,3,3,1,0,0,0,0,0,0,0,0,0],"split_type":[0,0,0,0,0,0,0,0,0,0,0,0,0,0,0,0,0,0,0,0,0,0,0,0,0,0,0,0,0],"sum_hessian":[3.4846813E1,1.9459558E1,1.5387258E1,2.3901153E0,1.7069443E1,1.3702616E1,1.6846418E0,1.0901982E0,1.5979244E1,4.0161963E0,9.686419E0,1.025948E1,5.719764E0,1.8105935E0,2.205603E0,6.9908895E0,2.6955292E0,3.8859339E0,6.373546E0,2.3767967E0,3.3429675E0,3.2131917E0,3.777698E0,1.8500223E0,2.0359116E0,2.088245E0,4.285301E0,1.1747499E0,1.2020468E0],"tree_param":{"num_deleted":"0","num_feature":"11","num_nodes":"29","size_leaf_vector":"1"}},{"base_weights":[-4.9660202E-2,-1.0551811E-1,-1.1475619E-2,-1.08726874E-1,1.0887185E-1,-1.4399147E-1,3.0377688E-2,4.985913E-2,1.6522704E-1,-9.908333E-2,-8.69093E-2,1.1922543E-1,-3.689743E-2,9.9912524E-2,3.0676741E-2,3.7139386E-2,-1.7013448E-1,9.1943905E-2,-5.5505633E-3,-1.0018754E-2,2.038728E-2,-2.8645934E-3,3.1244399E-2,-1.04851685E-1,-6.8769674E-3,1.5645565E-2,-2.260887E-2],"categories":[],"categories_nodes":[],"categories_segments":[],"categories_sizes":[],"default_left":[0,0,0,0,0,0,0,0,0,0,0,0,0,0,0,0,0,0,0,0,0,0,0,0,0,0,0],"id":43,"left_children":[1,-1,3,5,7,9,-1,11,13,-1,15,17,-1,-1,19,21,23,-1,25,-1,-1,-1,-1,-1,-1,-1,-1],"loss_changes":[3.2748824E-1,0E0,3.2258412E-1,1.2702419E-1,3.2886922E-2,1.1393699E-1,0E0,1.0426149E-1,1.2284914E-1,0E0,1.263347E-1,1.3816205E-1,0E0,0E0,1.271336E-2,1.8165287E-2,1.8042974E-1,0E0,2.20061E-2,0E0,0E0,0E0,0E0,0E0,0E0,0E0,0E0],"parents":[2147483647,0,0,2,2,3,3,4,4,5,5,7,7,8,8,10,10,11,11,14,14,15,15,16,16,18,18],"right_children":[2,-1,4,6,8,10,-1,12,14,-1,16,18,-1,-1,20,22,24,-1,26,-1,-1,-1,-1,-1,-1,-1,-1],"split_conditions":[6.8E1,-1.0551811E-1,1E0,7.8E1,7.4E0,6.5E0,3.0377688E-2,6.3E0,5.9E1,-9.908333E-2,7.2E0,5E1,-3.689743E-2,9.9912524E-2,8.1E0,8E0,7.7E0,9.1943905E-2,6.1E0,-1.0018754E-2,2.038728E-2,-2.8645934E-3,3.1244399E-2,-1.04851685E-1,-6.8769674E-3,1.5645565E-2,-2.260887E-2],"split_indices":[9,0,8,9,3,3,0,3,1,0,3,1,0,0,3,4,3,0,3,0,0,0,0,0,0,0,0],"split_type":[0,0,0,0,0,0,0,0,0,0,0,0,0,0,0,0,0,0,0,0,0,0,0,0,0,0,0],"sum_hessian":[2.7742506E1,2.19189E0,2.5550615E1,1.41847E1,1.1365916E1,1.2414168E1,1.7705309E0,6.472707E0,4.893209E0,1.7891892E0,1.0624979E1,4.84044E0,1.632267E0,1.5209807E0,3.3722281E0,4.4885135E0,6.1364655E0,1.3532888E0,3.4871514E0,1.2787389E0,2.0934894E0,3.1507442E0,1.3377695E0,2.1466637E0,3.9898021E0,2.0476577E0,1.4394937E0],"tree_param":{"num_deleted":"0","num_feature":"11","num_nodes":"27","size_leaf_vector":"1"}},{"base_weights":[5.0852165E-2,7.290308E-2,-9.507946E-2,1.5197758E-1,6.219906E-3,1.0830185E-1,1.02926694E-1,-2.311365E-2,8.494835E-2,1.741298E-1,3.052968E-2,-9.88071E-2,1.9532641E-2,2.588491E-1,3.240273E-3,-3.2014452E-2,7.50136E-2,2.0086389E-2,-1.5079118E-1,1.587017E-1,-5.407459E-2,3.120681E-2,1.0742334E-1,-1.2830961E-2,-3.121801E-3,-3.1243563E-2,4.9925726E-2,-9.569383E-2,-8.137411E-3,1.6833888E-2,8.497591E-2,-3.4685142E-2,9.397272E-3],"categories":[],"categories_nodes":[],"categories_segments":[],"categories_sizes":[],"default_left":[0,0,0,0,0,0,0,0,0,0,0,0,0,0,0,0,0,0,0,0,0,0,0,0,0,0,0,0,0,0,0,0,0],"id":44,"left_children":[1,3,-1,5,7,9,-1,11,-1,13,15,17,19,21,-1,23,25,-1,27,29,31,-1,-1,-1,-1,-1,-1,-1,-1,-1,-1,-1,-1],"loss_changes":[3.51917E-1,2.050355E-1,0E0,1.1165807E-1,1.8717487E-1,7.646136E-2,0E0,6.981571E-2,0E0,1.13967925E-1,2.6147733E-2,7.6823145E-2,1.5492862E-1,4.744613E-2,0E0,5.4226955E-4,1.0390801E-1,0E0,1.203541E-1,5.0501987E-2,5.6651305E-2,0E0,0E0,0E0,0E0,0E0,0E0,0E0,0E0,0E0,0E0,0E0,0E0],"parents":[2147483647,0,0,1,1,3,3,4,4,5,5,7,7,9,9,10,10,11,11,12,12,13,13,15,15,16,16,18,18,19,19,20,20],"right_children":[2,4,-1,6,8,10,-1,12,-1,14,16,18,20,22,-1,24,26,-1,28,30,32,-1,-1,-1,-1,-1,-1,-1,-1,-1,-1,-1,-1],"split_conditions":[7.8E1,4.3E1,-9.507946E-2,7.8E0,8.4E0,7.5E3,1.02926694E-1,6.6E0,8.494835E-2,7E0,7.3E0,6.1E0,7.8E0,1E0,3.240273E-3,3.9E1,3.2E1,2.0086389E-2,1E0,6.9E0,5.4E1,3.120681E-2,1.0742334E-1,-1.2830961E-2,-3.121801E-3,-3.1243563E-2,4.9925726E-2,-9.569383E-2,-8.137411E-3,1.6833888E-2,8.497591E-2,-3.4685142E-2,9.397272E-3],"split_indices":[9,1,0,3,3,10,0,3,0,6,3,3,3,2,0,1,1,0,0,3,1,0,0,0,0,0,0,0,0,0,0,0,0],"split_type":[0,0,0,0,0,0,0,0,0,0,0,0,0,0,0,0,0,0,0,0,0,0,0,0,0,0,0,0,0,0,0,0,0],"sum_hessian":[3.954414E1,3.806376E1,1.4803818E0,1.6828741E1,2.1235018E1,1.4973467E1,1.8552736E0,2.0029987E1,1.205032E0,7.4384437E0,7.5350237E0,6.743667E0,1.328632E1,4.5128016E0,2.9256415E0,3.2482781E0,4.2867455E0,1.5412139E0,5.202453E0,4.196307E0,9.090013E0,2.5626357E0,1.9501661E0,1.5149251E0,1.7333529E0,1.4011172E0,2.8856285E0,1.535203E0,3.6672504E0,3.096415E0,1.0998921E0,5.07725E0,4.0127625E0],"tree_param":{"num_deleted":"0","num_feature":"11","num_nodes":"33","size_leaf_vector":"1"}},{"base_weights":[-1.4020305E-2,2.9716192E-2,-1.4809965E-1,-7.6882206E-2,8.558383E-2,-7.340025E-2,-9.170892E-2,8.662954E-3,-9.4862826E-2,2.1802688E-1,2.8100515E-2,-8.133436E-2,5.422955E-3,-8.7639056E-2,6.532841E-2,1.7558202E-2,8.04029E-2,7.9114474E-2,-3.855856E-2,-7.253651E-3,1.73284E-2,6.2215547E-3,-1.3304776E-1,5.427435E-2,2.1025188E-2,-8.996034E-2,9.902164E-3,-2.8084913E-2,2.9546862E-2],"categories":[],"categories_nodes":[],"categories_segments":[],"categories_sizes":[],"default_left":[0,0,0,0,0,0,0,0,0,0,0,0,0,0,0,0,0,0,0,0,0,0,0,0,0,0,0,0,0],"id":45,"left_children":[1,3,5,7,9,11,-1,13,-1,15,17,-1,19,21,-1,-1,-1,23,-1,-1,-1,-1,25,-1,27,-1,-1,-1,-1],"loss_changes":[2.0736156E-1,1.6696054E-1,7.974674E-2,2.0311895E-1,1.3200016E-1,1.1375312E-1,0E0,1.8387227E-1,0E0,2.6911318E-2,1.2043189E-1,0E0,1.0896277E-2,3.3842202E-2,0E0,0E0,0E0,6.141243E-2,0E0,0E0,0E0,0E0,1.3693428E-1,0E0,8.162548E-2,0E0,0E0,0E0,0E0],"parents":[2147483647,0,0,1,1,2,2,3,3,4,4,5,5,7,7,9,9,10,10,12,12,13,13,17,17,22,22,24,24],"right_children":[2,4,6,8,10,12,-1,14,-1,16,18,-1,20,22,-1,-1,-1,24,-1,-1,-1,-1,26,-1,28,-1,-1,-1,-1],"split_conditions":[7.7E0,3.9E1,3E0,3.7E1,4E0,2E0,-9.170892E-2,3.6E1,-9.4862826E-2,6.9E1,7.3E1,-8.133436E-2,5.3E1,6.1E0,6.532841E-2,1.7558202E-2,8.04029E-2,6.5E0,-3.855856E-2,-7.253651E-3,1.73284E-2,6.2215547E-3,7.8E1,5.427435E-2,8E0,-8.996034E-2,9.902164E-3,-2.8084913E-2,2.9546862E-2],"split_indices":[3,1,2,1,2,2,0,1,0,9,9,0,1,3,0,0,0,3,0,0,0,0,9,0,2,0,0,0,0],"split_type":[0,0,0,0,0,0,0,0,0,0,0,0,0,0,0,0,0,0,0,0,0,0,0,0,0,0,0,0,0],"sum_hessian":[3.3610344E1,2.5930288E1,7.680056E0,8.787372E0,1.7142916E1,6.2047906E0,1.4752654E0,7.1835017E0,1.6038693E0,4.3431997E0,1.2799717E1,1.0732365E0,5.131554E0,5.316031E0,1.8674709E0,1.5542856E0,2.7889142E0,1.0028376E1,2.7713413E0,3.6213832E0,1.5101709E0,1.7300911E0,3.58594E0,2.8752139E0,7.1531615E0,1.386858E0,2.199082E0,2.800346E0,4.3528156E0],"tree_param":{"num_deleted":"0","num_feature":"11","num_nodes":"29","size_leaf_vector":"1"}},{"base_weights":[-4.5383383E-2,-1.0055535E-1,-1.0569606E-2,-9.629475E-2,9.567489E-2,-1.2976776E-1,2.8919267E-2,4.172434E-2,1.4753833E-1,-9.423972E-2,-7.617443E-2,1.0207256E-1,-3.1716112E-2,9.328785E-2,2.5329662E-2,-8.328287E-2,-2.4862051E-2,8.659578E-2,-1.3619092E-2,-9.212991E-3,1.7696777E-2,2.903227E-2,-3.5261612E-2,1.4251172E-2,-2.5413284E-2],"categories":[],"categories_nodes":[],"categories_segments":[],"categories_sizes":[],"default_left":[0,0,0,0,0,0,0,0,0,0,0,0,0,0,0,0,0,0,0,0,0,0,0,0,0],"id":46,"left_children":[1,-1,3,5,7,9,-1,11,13,-1,15,17,-1,-1,19,-1,21,-1,23,-1,-1,-1,-1,-1,-1],"loss_changes":[2.7305645E-1,0E0,2.4153586E-1,1.0678023E-1,2.7119666E-2,1.0332231E-1,0E0,7.506358E-2,1.05344996E-1,0E0,1.0987842E-1,1.255496E-1,0E0,0E0,9.983355E-3,0E0,1.2526304E-1,0E0,2.3285745E-2,0E0,0E0,0E0,0E0,0E0,0E0],"parents":[2147483647,0,0,2,2,3,3,4,4,5,5,7,7,8,8,10,10,11,11,14,14,16,16,18,18],"right_children":[2,-1,4,6,8,10,-1,12,14,-1,16,18,-1,-1,20,-1,22,-1,24,-1,-1,-1,-1,-1,-1],"split_conditions":[6.8E1,-1.0055535E-1,1E0,7.8E1,7.4E0,6.5E0,2.8919267E-2,6.3E0,5.9E1,-9.423972E-2,1E0,5E1,-3.1716112E-2,9.328785E-2,8.1E0,-8.328287E-2,7.2E0,8.659578E-2,6.1E0,-9.212991E-3,1.7696777E-2,2.903227E-2,-3.5261612E-2,1.4251172E-2,-2.5413284E-2],"split_indices":[9,0,8,9,3,3,0,3,1,0,0,1,0,0,3,0,3,0,3,0,0,0,0,0,0],"split_type":[0,0,0,0,0,0,0,0,0,0,0,0,0,0,0,0,0,0,0,0,0,0,0,0,0],"sum_hessian":[2.6415728E1,1.9076777E0,2.450805E1,1.3615669E1,1.0892381E1,1.1878741E1,1.7369281E0,6.223224E0,4.669157E0,1.5804567E0,1.0298285E1,4.634198E0,1.589026E0,1.3369074E0,3.3322494E0,1.1953919E0,9.102893E0,1.2014923E0,3.4327059E0,1.2833085E0,2.048941E0,3.9172997E0,5.185593E0,2.0241702E0,1.4085357E0],"tree_param":{"num_deleted":"0","num_feature":"11","num_nodes":"25","size_leaf_vector":"1"}},{"base_weights":[4.4288613E-2,6.398167E-2,-8.9389E-2,9.518585E-2,4.4678442E-2,3.0387074E-2,7.988555E-2,9.224243E-2,-1.73855E-2,-3.3144403E-2,1.19963445E-1,-8.486395E-2,1.9679967E-2,2.2587338E-2,9.216461E-2,2.0225672E-2,-4.0587015E-2,4.584618E-2,-1.4927752E-2],"categories":[],"categories_nodes":[],"categories_segments":[],"categories_sizes":[],"default_left":[0,0,0,0,0,0,0,0,0,0,0,0,0,0,0,0,0,0,0],"id":47,"left_children":[1,3,-1,-1,5,7,-1,9,11,-1,13,15,17,-1,-1,-1,-1,-1,-1],"loss_changes":[2.8225985E-1,1.7039874E-1,0E0,0E0,1.0668083E-1,1.0553871E-1,0E0,1.00279465E-1,5.3410593E-2,0E0,9.483561E-2,6.6887975E-2,1.3855502E-1,0E0,0E0,0E0,0E0,0E0,0E0],"parents":[2147483647,0,0,1,1,4,4,5,5,7,7,8,8,10,10,11,11,12,12],"right_children":[2,4,-1,-1,6,8,-1,10,12,-1,14,16,18,-1,-1,-1,-1,-1,-1],"split_conditions":[7.8E1,3.1E1,-8.9389E-2,9.518585E-2,8.4E0,4.3E1,7.988555E-2,3.2E1,6.6E0,-3.3144403E-2,7.7E0,6.1E0,7.8E0,2.2587338E-2,9.216461E-2,2.0225672E-2,-4.0587015E-2,4.584618E-2,-1.4927752E-2],"split_indices":[9,1,0,0,3,1,0,1,3,0,3,3,3,0,0,0,0,0,0],"split_type":[0,0,0,0,0,0,0,0,0,0,0,0,0,0,0,0,0,0,0],"sum_hessian":[3.804989E1,3.6748455E1,1.301436E0,1.5090575E0,3.5239395E1,3.4172726E1,1.06667E0,1.4485809E1,1.9686916E1,1.3834162E0,1.3102393E1,6.522678E0,1.3164239E1,1.1710683E1,1.3917099E0,1.5387598E0,4.983918E0,4.100765E0,9.063474E0],"tree_param":{"num_deleted":"0","num_feature":"11","num_nodes":"19","size_leaf_vector":"1"}},{"base_weights":[-1.1874923E-2,2.7763937E-2,-1.3454778E-1,-6.627745E-2,7.645659E-2,-6.644544E-2,-8.6090654E-2,1.313128E-2,-9.039999E-2,1.9995373E-1,2.219848E-2,-1.1974117E-1,-2.5042854E-3,-7.83525E-2,6.0460683E-2,9.694273E-2,9.08595E-2,6.6317484E-2,-3.4257103E-2,-8.163528E-2,1.6822284E-2,8.621558E-3,-1.2575133E-1,1.21597685E-2,3.846964E-2,4.775816E-2,1.4991213E-2,-8.5586265E-2,7.824708E-3,3.9359782E-2,-1.8086549E-2],"categories":[],"categories_nodes":[],"categories_segments":[],"categories_sizes":[],"default_left":[0,0,0,0,0,0,0,0,0,0,0,0,0,0,0,0,0,0,0,0,0,0,0,0,0,0,0,0,0,0,0],"id":48,"left_children":[1,3,5,7,9,11,-1,13,-1,15,17,19,-1,21,-1,23,-1,25,-1,-1,-1,-1,27,-1,-1,-1,29,-1,-1,-1,-1],"loss_changes":[1.6678418E-1,1.24908775E-1,6.770915E-2,1.8060303E-1,1.1421411E-1,2.092098E-2,0E0,1.5423381E-1,0E0,2.6614338E-2,8.83695E-2,1.12168774E-1,0E0,3.4713905E-2,0E0,2.0559803E-3,0E0,4.899252E-2,0E0,0E0,0E0,0E0,1.1482444E-1,0E0,0E0,0E0,7.82951E-2,0E0,0E0,0E0,0E0],"parents":[2147483647,0,0,1,1,2,2,3,3,4,4,5,5,7,7,9,9,10,10,11,11,13,13,15,15,17,17,22,22,26,26],"right_children":[2,4,6,8,10,12,-1,14,-1,16,18,20,-1,22,-1,24,-1,26,-1,-1,-1,-1,28,-1,-1,-1,30,-1,-1,-1,-1],"split_conditions":[7.7E0,3.9E1,3E0,3.7E1,4E0,9E1,-8.6090654E-2,3.6E1,-9.039999E-2,4.4E1,7.3E1,5.3E1,-2.5042854E-3,6.1E0,6.0460683E-2,8E1,9.08595E-2,4.4E1,-3.4257103E-2,-8.163528E-2,1.6822284E-2,8.621558E-3,7.8E1,1.21597685E-2,3.846964E-2,4.775816E-2,6.5E0,-8.5586265E-2,7.824708E-3,3.9359782E-2,-1.8086549E-2],"split_indices":[3,1,2,1,2,5,0,1,0,1,9,1,0,3,0,5,0,1,0,0,0,0,9,0,0,0,3,0,0,0,0],"split_type":[0,0,0,0,0,0,0,0,0,0,0,0,0,0,0,0,0,0,0,0,0,0,0,0,0,0,0,0,0,0,0],"sum_hessian":[3.2531075E1,2.517125E1,7.3598247E0,8.463784E0,1.6707464E1,6.07944E0,1.2803847E0,7.032228E0,1.4315567E0,4.280154E0,1.2427311E1,2.6173766E0,3.4620633E0,5.126884E0,1.9053437E0,3.1095715E0,1.1705824E0,9.778067E0,2.6492438E0,1.1087207E0,1.5086559E0,1.6937592E0,3.4331248E0,1.9283853E0,1.1811863E0,2.7322948E0,7.045772E0,1.2454967E0,2.1876283E0,2.4778821E0,4.56789E0],"tree_param":{"num_deleted":"0","num_feature":"11","num_nodes":"31","size_leaf_vector":"1"}},{"base_weights":[-4.124152E-2,-9.592084E-2,-9.134353E-3,-8.326729E-2,8.277793E-2,-1.1351699E-1,2.5819486E-2,1.4964685E-1,4.0028296E-2,-8.9188136E-2,-6.3234895E-2,8.213409E-2,4.2951694E-3,-6.1517704E-2,1.11253664E-1,-7.896152E-2,-1.5107474E-2,4.5104222E-3,-3.9323404E-2,7.9050176E-2,1.333651E-2,2.6082026E-2,-2.9632613E-2,-1.0275446E-2,1.3561432E-2],"categories":[],"categories_nodes":[],"categories_segments":[],"categories_sizes":[],"default_left":[0,0,0,0,0,0,0,0,0,0,0,0,0,0,0,0,0,0,0,0,0,0,0,0,0],"id":49,"left_children":[1,-1,3,5,7,9,-1,11,13,-1,15,-1,-1,17,19,-1,21,-1,-1,-1,23,-1,-1,-1,-1],"loss_changes":[2.3164228E-1,0E0,1.7417161E-1,8.1932254E-2,2.6776128E-2,9.563728E-2,0E0,6.503899E-2,6.728951E-2,0E0,1.0182803E-1,0E0,0E0,2.3746023E-2,7.501972E-2,0E0,9.3302734E-2,0E0,0E0,0E0,8.007885E-3,0E0,0E0,0E0,0E0],"parents":[2147483647,0,0,2,2,3,3,4,4,5,5,7,7,8,8,10,10,13,13,14,14,16,16,20,20],"right_children":[2,-1,4,6,8,10,-1,12,14,-1,16,-1,-1,18,20,-1,22,-1,-1,-1,24,-1,-1,-1,-1],"split_conditions":[6.8E1,-9.592084E-2,1E0,7.8E1,5E1,6.5E0,2.5819486E-2,6.3E0,5.1E1,-8.9188136E-2,1E0,8.213409E-2,4.2951694E-3,6.1E0,5.9E1,-7.896152E-2,7.2E0,4.5104222E-3,-3.9323404E-2,7.9050176E-2,8.1E0,2.6082026E-2,-2.9632613E-2,-1.0275446E-2,1.3561432E-2],"split_indices":[9,